{"vocabulary": ["a", "about", "activat", "activate", "active", "address", "ai", "alarm", "all", "app", "architecture", "arduino", "are", "area", "arm", "available", "awesome", "bad", "brain", "break", "bright", "built", "bulb", "bye", "can", "change", "code", "color", "connection", "cool", "cost", "creat", "create", "creator", "cyber", "dark", "darkness", "data", "database", "day", "deactivat", "deactivate", "depress", "design", "detail", "developer", "disarm", "do", "down", "engine", "enter", "esp", "even", "everyth", "exhaust", "explain", "featur", "feel", "firebase", "firmware", "flutter", "framework", "generate", "github", "give", "good", "goodbye", "greeting", "guard", "hacker", "had", "hard", "hardware", "hello", "hey", "hi", "house", "how", "howdy", "illuminate", "im", "indexedstack", "is", "it", "job", "kill", "kirancybergrid", "light", "lock", "lonely", "love", "made", "make", "management", "me", "mode", "module", "morn", "ne", "nebula", "neon", "night", "now", "of", "off", "on", "optimization", "pir", "please", "processor", "protect", "rate", "realtime", "relay", "riverpod", "room", "sad", "safe", "satellite", "script", "secur", "security", "see", "sensor", "server", "shut", "shutdown", "sleep", "smart", "space", "start", "state", "stop", "stress", "structure", "sup", "switch", "system", "technical", "telemetry", "tell", "tensorflow", "thank", "the", "them", "theme", "thi", "tir", "to", "too", "train", "turn", "ui", "unlock", "up", "use", "wake", "were", "what", "who", "work", "write", "you", "your"], "classes": ["ai_origin", "app_structure", "compliment", "developer_info", "farewell", "feeling_sad", "feeling_stressed", "firebase_details", "general_query", "generate_esp32_firmware", "generate_esp8266_firmware", "greeting", "hardware_explain", "lights_off", "lights_on", "relay_1_off", "relay_1_on", "relay_2_off", "relay_2_on", "security_arm", "security_disarm", "security_engine", "telemetry_optimization", "theme_dark", "theme_engine", "theme_neon"], "layer1_weights": [[-0.008563807234168053, 0.02872915007174015, 0.029789995402097702, 0.03961802273988724, 0.0447433739900589, -0.03254067525267601, -0.026305703446269035, -0.06845153123140335, -0.07838092744350433, 0.03850908577442169, 0.019003363326191902, 0.03015938028693199, -0.037911489605903625, 0.05539505183696747, 0.04455193877220154, -0.006124470848590136, -0.018838178366422653, -0.03035786934196949, -0.07532361894845963, -0.06092025712132454, 0.0356585755944252, 0.016902746632695198, 0.004053009208291769, 0.05124380439519882, 0.016365934163331985, -0.0051567768678069115, 0.03945782035589218, -0.005043819546699524, -6.919790030224249e-05, 0.08162498474121094, -0.0076688919216394424, -0.050378624349832535, -0.04287547245621681, 0.017813250422477722, -0.021632930263876915, 0.021334795281291008, -0.0195167139172554, -0.04799819365143776, -0.0059865484945476055, 0.012604551389813423, -0.03655316308140755, -0.004068729002028704, -0.005078643094748259, -0.06496816128492355, 0.032649628818035126, -0.06860167533159256, 0.03606785088777542, 0.03674883022904396, 0.010646515525877476, 0.02067001722753048, 0.01941942423582077, 0.05055731162428856, -0.060604795813560486, -0.005484986584633589, 0.0035558724775910378, -0.016224347054958344, 0.03543274477124214, -0.01349023450165987, 0.022532233968377113, 0.029121706262230873, -0.03903276473283768, -0.010798722505569458, 0.04023955017328262, -0.02598055824637413], [-0.019391298294067383, -0.05456847324967384, 0.02013055980205536, -0.020344853401184082, 0.014946656301617622, -0.005602765828371048, 0.0028490775730460882, 0.042611125856637955, 0.01973978616297245, -0.00212029367685318, -0.012426387518644333, 0.011896017007529736, -0.006439947057515383, 0.01653897762298584, 0.03064429759979248, 0.015357858501374722, -0.004723430145531893, -0.014096985571086407, 0.02105061709880829, -0.01630774326622486, 0.027622191235423088, 0.03460897505283356, -0.01890893094241619, 0.01985272206366062, 0.008081745356321335, -0.011173829436302185, -0.03190252557396889, -0.017069606110453606, -0.010162491351366043, 0.01778143271803856, 0.0042001898400485516, 0.008243647404015064, -0.003608790459111333, -0.020190168172121048, 0.030531439930200577, 0.035664528608322144, 0.002909831004217267, -0.024447927251458168, 0.015304605476558208, -0.02823312021791935, -0.014026353135704994, 0.025091489776968956, -0.0006081791943870485, 0.029920406639575958, 0.03435248136520386, -0.005688173696398735, -0.03228553384542465, 0.033942751586437225, 0.006253534462302923, -0.0419108085334301, -0.027052132412791252, 0.022922290489077568, 0.020945923402905464, -0.0300985649228096, 0.008614991791546345, -0.0035672353114932775, -0.019007664173841476, 0.025104593485593796, -0.016033213585615158, 0.02081950381398201, -0.0034606028348207474, -0.0019398706499487162, -0.015886757522821426, 0.023754442110657692], [0.014142902567982674, 0.14091622829437256, 0.0005709889228455722, 0.02214382402598858, -0.026981528848409653, -0.10301444679498672, 0.034287407994270325, 0.029687028378248215, 0.07103438675403595, -0.10150814801454544, 0.016003740951418877, -0.11245648562908173, 0.05340517312288284, 0.034101780503988266, 0.10292129963636398, -0.016737207770347595, 0.04850706458091736, -0.0028683822602033615, -0.02361716330051422, -0.050564736127853394, -0.04330554977059364, -0.06106358394026756, -6.366282832459547e-06, 0.01362848561257124, 3.395096579507517e-33, -0.14667196571826935, 0.0495239719748497, 0.16136743128299713, -0.004929569084197283, 0.026462461799383163, 0.008036172948777676, -0.14840905368328094, -0.06097261980175972, -0.12880444526672363, 0.2030477076768875, 0.08760786801576614, -0.05363309010863304, -0.011298426426947117, -0.00942742358893156, 0.026282738894224167, -0.14490514993667603, 3.710180860747723e-33, 0.034701816737651825, 0.007557990495115519, 0.03524266928434372, -0.010924041271209717, -0.04795228689908981, -0.0796269029378891, 0.138156458735466, 0.1522718369960785, 0.03409070894122124, 0.03144583851099014, -0.05179885774850845, 0.014801890589296818, 0.0968686044216156, -0.09497416019439697, -0.1574382483959198, -0.02289084531366825, -0.023132091388106346, 0.1609194427728653, 0.11176471412181854, -0.010688669979572296, -0.03522967919707298, -0.07993914932012558], [0.058510974049568176, 0.018820809200406075, -0.14587590098381042, 0.12172055244445801, -0.03817352280020714, -0.06559915095567703, 0.04228146746754646, 0.012749024666845798, 0.012620145455002785, -0.2716618776321411, 0.04705442860722542, 0.002539979759603739, 0.01658475399017334, 0.05402016267180443, 0.10375362634658813, -0.06383403390645981, 0.08295324444770813, 0.1029604896903038, -0.15639346837997437, -0.13416539132595062, -0.05946221202611923, -0.08846892416477203, 0.06991545855998993, 0.10057534277439117, 0.02256551943719387, -0.15075521171092987, 0.1616882085800171, 0.09559371322393417, 0.014365879818797112, -0.03378012031316757, -0.0500829853117466, -0.13344259560108185, -0.0047634923830628395, 0.01906709000468254, 0.17124223709106445, 0.03937752544879913, 0.02232583612203598, 0.07173015922307968, 0.023441849276423454, -0.028087815269827843, -0.13245967030525208, 0.008273684419691563, 0.001333040650933981, 0.077039934694767, 0.11978273093700409, 0.07596419006586075, 0.0031279963441193104, -0.16899295151233673, 0.08329185098409653, 0.10718376934528351, 0.09838655591011047, 0.11062727868556976, 0.05498659238219261, -0.07022034376859665, 0.018286265432834625, -0.008109225891530514, -0.19897596538066864, -0.054189298301935196, 0.051881093531847, 0.06313268095254898, 0.06095960736274719, -0.0072838193736970425, -0.1298876255750656, -0.09575563669204712], [0.039333052933216095, 0.12348732352256775, -0.00423709349706769, 0.01708219014108181, -0.020060652866959572, -0.09999937564134598, 0.015302159823477268, 0.034316536039114, 0.07085011154413223, -0.09566346555948257, 0.018306512385606766, -0.10815903544425964, 0.045508742332458496, 0.023740651085972786, 0.09662914276123047, -0.016993632540106773, 0.05895015597343445, -0.0026174180675297976, -0.04245501756668091, -0.04262898489832878, -0.029141606763005257, -0.06262318789958954, -5.564331149798818e-05, 0.009638991206884384, 2.2716132619343077e-33, -0.1381232738494873, 0.048767995089292526, 0.16915363073349, -0.011519176885485649, 0.04329816251993179, 0.013064895756542683, -0.1446799784898758, -0.06535767018795013, -0.12037131190299988, 0.19310806691646576, 0.10127070546150208, -0.05650816857814789, -0.002307943534106016, -0.010354656726121902, 0.025320352986454964, -0.1381325125694275, -8.963604750444434e-35, 0.009785451926290989, 0.01673043891787529, 0.016886578872799873, 0.0020460509695112705, -0.03504255414009094, -0.0814080461859703, 0.1287212073802948, 0.15333609282970428, 0.038047075271606445, 0.018154222518205643, -0.04952138289809227, 0.014162731356918812, 0.0934765487909317, -0.0852707028388977, -0.14933130145072937, -0.015044240280985832, -0.023847706615924835, 0.1515202522277832, 0.10676614940166473, -0.007078803144395351, -0.03448781371116638, -0.07768328487873077], [-0.021482162177562714, -0.01369406282901764, -0.0029516101349145174, -0.007203639950603247, -0.003876320319250226, -0.025296075269579887, -0.03518475592136383, 0.02074679732322693, 0.0011597095290198922, 0.02341051958501339, -0.03864198923110962, 0.01991383731365204, -0.01644795946776867, 0.022116780281066895, 0.022884784266352654, -0.0021902380976825953, -0.01652853935956955, -0.005968019366264343, 0.0008396446355618536, 0.011669725179672241, 0.0056036897003650665, 0.02778509631752968, 0.016942758113145828, 0.00260609807446599, -0.009173993021249771, 0.009012367576360703, -0.052118368446826935, -0.02662590891122818, -0.017344068735837936, 0.0015675202012062073, 0.00693601043894887, -0.010420713573694229, -0.03639962896704674, 0.020687716081738472, 0.01554798986762762, 0.024313678964972496, 0.011887408792972565, -0.02660163678228855, 0.008635302074253559, -0.020595509558916092, -0.01343197375535965, 0.0055822874419391155, -0.037580639123916626, 0.015883272513747215, 0.02345089241862297, 0.02931416593492031, -0.011228539980947971, 0.017479002475738525, -0.0012564300559461117, 0.003425959497690201, 0.018073195591568947, 0.0038708243519067764, 0.016787024214863777, 0.010875788517296314, -0.0006785186124034226, -0.04721745848655701, 0.025678496807813644, 0.008620640262961388, -0.0207806508988142, 0.026051685214042664, -0.021461121737957, 0.018323522061109543, 1.5930372910740567e-33, 0.015682362020015717], [0.020091552287340164, -0.02931147813796997, 0.018662862479686737, -0.007423125207424164, -0.04595789685845375, 0.047212034463882446, 0.07762854546308517, 0.06984018534421921, 0.0785282701253891, 0.03765586018562317, 0.0616922527551651, -0.06722749024629593, 0.05627350136637688, -0.04390280321240425, -0.031234748661518097, 0.03740742430090904, 0.00976975355297327, -0.029879571869969368, -0.11070146411657333, 0.05344075337052345, 0.04343875125050545, 0.050465624779462814, -0.10910454392433167, -0.07037430256605148, 0.03587212413549423, 0.02013627253472805, -0.01173799205571413, 0.0409420020878315, -0.06837323307991028, 0.030274229124188423, 0.025733940303325653, 0.03589215874671936, 0.048297517001628876, -0.0747981071472168, 0.008699840866029263, -0.10182248055934906, 0.04842962324619293, 0.029844868928194046, 0.03340641036629677, -0.014896770939230919, 0.022674547508358955, 0.04102807492017746, -0.011336849071085453, 0.013254575431346893, 0.04646163433790207, 0.06392958015203476, 0.039034124463796616, -0.06353839486837387, -0.07298006862401962, 0.02485344000160694, -0.0703817680478096, 0.011998170055449009, 0.04281442239880562, -0.032584089785814285, -0.05637525022029877, -0.03254242613911629, -0.028050724416971207, 0.034388188272714615, 0.006817384157329798, -0.0657748356461525, 0.062244195491075516, -0.045537304133176804, -0.11051417887210846, -0.0024455643724650145], [0.08158022165298462, 0.08176841586828232, -0.02651330828666687, -0.1920323669910431, -0.14729882776737213, -0.009657193906605244, -0.02329104207456112, 0.0010065693641081452, 0.188527911901474, -0.058621104806661606, -0.09217763692140579, -0.11556463688611984, -0.16110682487487793, 0.05932878702878952, -0.10791352391242981, -0.15566249191761017, 2.506165037630126e-05, -0.03727172315120697, 0.08000758290290833, -0.18189750611782074, 0.09047525376081467, -0.000308389775454998, -0.10018704831600189, 0.1433311104774475, -0.01083537470549345, 0.16000910103321075, -0.16197848320007324, -0.08817221224308014, -0.009558049030601978, 0.15044787526130676, -0.19236843287944794, 0.19567550718784332, 0.07184578478336334, 0.12808877229690552, -0.06999831646680832, -0.1356804370880127, 0.19263453781604767, -0.05387583747506142, 0.10665126889944077, -0.06595923006534576, -0.14515481889247894, 0.11627594381570816, 0.0848068818449974, 0.02609035186469555, -0.051853492856025696, 0.009519459679722786, -0.08729555457830429, 0.035582832992076874, 0.19859378039836884, 0.09302464872598648, -0.058357514441013336, 0.09801971167325974, -0.038586799055337906, -0.10403260588645935, -0.0861770361661911, 0.031242597848176956, -0.0786779373884201, 0.03678160533308983, 0.13972245156764984, -0.03909359499812126, 0.054462626576423645, -0.017615491524338722, 0.04938197508454323, 0.05129796639084816], [0.027883173897862434, 0.007189420983195305, 0.061018507927656174, 0.006775256711989641, 0.07131414115428925, 0.04552576318383217, -0.0213485024869442, 0.03679581731557846, -0.07809613645076752, -0.018090607598423958, 0.04552784934639931, 0.009941444732248783, 0.05345468968153, -0.011854591779410839, 0.024719778448343277, 0.05951347202062607, 0.02063049003481865, 0.011606065556406975, -0.040949441492557526, 0.021009912714362144, -0.016693351790308952, -0.0677843764424324, 0.04039971902966499, -0.012553450651466846, 0.05011945217847824, -0.07478610426187515, 0.008190811611711979, 0.010832387953996658, -0.004412827081978321, -0.08845804631710052, 0.044432178139686584, -0.05725075304508209, -0.03230953961610794, 0.022151587530970573, 0.014209861867129803, 0.03780907392501831, -0.021135754883289337, 0.02001175470650196, 0.03612901270389557, -0.01401995774358511, 0.07156766951084137, 0.026763945817947388, -0.024339616298675537, 0.0063748834654688835, -0.07376523315906525, 0.029756013303995132, -0.0034687721636146307, -0.03356894105672836, -0.0042260438203811646, -0.005996072664856911, 0.02967539057135582, -0.039610397070646286, 0.029387906193733215, 0.0003474632394500077, 0.04077495262026787, 0.05537831410765648, 0.07297550141811371, -0.029005391523241997, 0.00572618655860424, 0.03622130677103996, 0.04801638051867485, 0.02871273271739483, -0.02895789034664631, 0.013229341246187687], [0.0168418288230896, -0.022368356585502625, -0.06293613463640213, -0.109072245657444, 0.011233553290367126, 0.02824031375348568, 0.060730475932359695, -0.12961949408054352, 0.05231861397624016, 0.045714158564805984, 0.008534529246389866, 0.013079586438834667, -0.059562407433986664, -0.11352334171533585, -0.024098949506878853, 0.06362582743167877, -0.013307795859873295, -0.0063162920996546745, 0.07357729971408844, 0.06999529153108597, 0.04866935685276985, -0.10377858579158783, 0.11265647411346436, -0.04280181974172592, 0.014937476254999638, 0.023030459880828857, 0.09965893626213074, 0.04137750342488289, 0.0669412612915039, 0.016498159617185593, 0.07336501777172089, -0.012800524942576885, 0.05809260159730911, -0.15677927434444427, -0.04343736544251442, 0.03869783878326416, 0.10040560364723206, 0.09524661302566528, 0.015486342832446098, 0.012219976633787155, -0.07646376639604568, -0.09425457566976547, 0.09048449248075485, 0.04614077880978584, 0.05352593958377838, -0.10863768309354782, -0.0314946286380291, 0.033812589943408966, 0.059252429753541946, -0.12452606111764908, 0.004591027740389109, 0.01585923321545124, -0.0037641008384525776, -0.0679682269692421, 0.0882195308804512, -0.05933891609311104, 0.07421684265136719, 0.0022792418021708727, -0.06557556986808777, 0.04771467298269272, 0.08580617606639862, -0.1063050925731659, 0.024343937635421753, -0.004493873566389084], [-0.04686133936047554, -0.1244075670838356, 0.0702836737036705, -0.027169225737452507, 0.030157113447785378, 0.03684909641742706, 0.07681304961442947, 0.07267773151397705, 0.04376792535185814, -0.008233211003243923, 0.06581270694732666, 0.0021061550360172987, 0.02926844172179699, 0.07841980457305908, 0.06817782670259476, 0.030351076275110245, 0.06581901758909225, -0.08528174459934235, 0.03865452855825424, -0.07534158229827881, 0.03561077266931534, 0.059720396995544434, -0.06126862019300461, 0.06510329991579056, 0.0215349942445755, -0.07725462317466736, 0.04053937643766403, 0.00020403717644512653, 0.04516727849841118, 0.010628433898091316, -0.013500196859240532, 0.03615314140915871, 0.04127545282244682, -0.13466620445251465, 0.045392878353595734, 0.04853135719895363, -0.0017924726707860827, -0.09340789169073105, 0.0229317769408226, -0.03214561194181442, 0.01666833460330963, 0.03518398106098175, 0.03943701088428497, 0.012367731891572475, 0.03437110036611557, -0.0768197625875473, -0.02508820779621601, 0.07928015291690826, 0.026605501770973206, -0.1276623010635376, -0.05679711699485779, 0.033501893281936646, 6.757831579307094e-05, -0.1358041763305664, 0.03760761022567749, 0.04862930625677109, -0.10684852302074432, 0.01604527235031128, 0.018538223579525948, 0.05299612507224083, -0.04765469953417778, -0.09277325868606567, 0.036300044506788254, 0.03149444982409477], [0.02676207199692726, -0.014544217847287655, 0.02045057900249958, 0.05075593665242195, -0.02624439261853695, 0.006599023938179016, -0.028652282431721687, 0.02367844618856907, 0.019172025844454765, 0.006485403515398502, 0.00741013465449214, 0.003760776948183775, 0.011403246782720089, 0.01120839174836874, -0.008373412303626537, 0.012560505419969559, -0.012885629199445248, 0.02351081185042858, 0.006077457219362259, 0.0016407781513407826, -0.006151897367089987, 0.04109083116054535, 0.022916480898857117, 0.024907533079385757, -0.01225256733596325, -0.005894087255001068, -0.010317355394363403, 0.013568643480539322, 0.010804065503180027, -0.011965256184339523, -0.025844911113381386, -0.0006508103106170893, 0.021842708811163902, -0.058808401226997375, 4.2889455685981084e-14, -0.016249943524599075, -0.035469040274620056, -0.015169458463788033, -0.013970131054520607, -0.06956428289413452, 0.02150551974773407, 0.016987232491374016, -0.018487529829144478, -0.015489514917135239, 0.041775498539209366, 0.029673071578145027, -0.02876969240605831, 0.039838630706071854, -0.05226708948612213, 0.0443335622549057, 0.019029447808861732, -0.041024915874004364, -0.04466911777853966, -0.007447506301105022, -0.025710858404636383, -0.027700526639819145, 0.031715650111436844, 0.02944246679544449, 0.04736010357737541, -0.008169540204107761, 0.01120167225599289, -0.004029600415378809, 0.01990371011197567, -0.03287547081708908], [0.02941172756254673, -0.023095931857824326, -0.02180238626897335, -0.027703898027539253, -0.03433944284915924, 0.08903434872627258, 0.17220906913280487, 0.05120134353637695, 0.1341526061296463, 0.04999038577079773, -0.023594478145241737, -0.09875011444091797, 0.015051184222102165, 0.01620415598154068, -0.06307720392942429, 0.03367459028959274, -0.013662043958902359, 0.0748300701379776, -0.11637233197689056, 0.11308018863201141, -0.17761293053627014, 0.11688533425331116, -0.08155494928359985, -0.012739034369587898, 0.05728225037455559, 0.0023041851818561554, -0.007004784420132637, 0.05458066985011101, -0.13060463964939117, -0.030132394284009933, -0.027113039046525955, 0.0668860524892807, 0.010649839416146278, -0.11828873306512833, 0.02686983160674572, -0.20100636780261993, 0.0225884597748518, -0.10066510736942291, 0.07489332556724548, 0.022314881905913353, 0.030424289405345917, -0.017188457772135735, 0.05821617320179939, 0.044855937361717224, -0.055778779089450836, 0.13258309662342072, -0.029838502407073975, 0.05356644093990326, -0.15156185626983643, 0.012390082702040672, -0.06370249390602112, -0.04593804478645325, 0.06488382816314697, 0.00600137934088707, -0.055974241346120834, 0.02931203879415989, -0.04185972735285759, 0.1500570923089981, 0.043335285037755966, -0.17760658264160156, 0.09293840825557709, 0.08447197824716568, -0.136630579829216, -0.03347311541438103], [0.05115479975938797, 0.01970686949789524, -0.057882070541381836, 0.02444879710674286, -0.005384592805057764, -0.010022091679275036, 0.003918666858226061, 0.012421407736837864, -0.009693270549178123, -0.16594333946704865, 0.035278111696243286, -0.007731557358056307, -0.01232597604393959, 0.03615504130721092, 0.03330855816602707, -0.04763244092464447, 0.04659260809421539, 0.060116738080978394, -0.08665268868207932, -0.06843098998069763, -0.03712732717394829, -0.020152900367975235, 0.03807506710290909, 0.07260358333587646, 0.03178953751921654, -0.1030394658446312, 0.054729267954826355, 0.032365985214710236, 0.03017283044755459, -0.055110882967710495, -0.017621096223592758, -0.06418735533952713, -0.019685903564095497, 0.025404931977391243, 0.051085494458675385, 0.002449015388265252, 0.019201716408133507, 0.03084360994398594, 0.02515445277094841, -0.015925034880638123, -0.05700742453336716, 0.031015044078230858, 0.016253430396318436, 0.04295068979263306, 0.05707928165793419, 0.050212882459163666, -0.04885180667042732, -0.08079871535301208, 0.05965781211853027, 0.04936062917113304, 0.031779177486896515, 0.05817759037017822, 0.011247210204601288, -0.02897013910114765, 0.00440410478040576, 0.013413378968834877, -0.06173663213849068, -0.06310340017080307, 0.029331862926483154, 0.02623283676803112, 0.044105831533670425, 0.0030867857858538628, -0.08437828719615936, -0.03303900361061096], [0.034252822399139404, 0.012136613018810749, -0.1510835587978363, 0.11359889060258865, -0.05611191317439079, -0.09915190935134888, 0.08463257551193237, 0.007935155183076859, 0.03486499562859535, -0.21235224604606628, 0.03729107230901718, 0.03972332179546356, -0.0020831332076340914, -0.03399296849966049, 0.11592266708612442, -0.07264038175344467, 0.0941588506102562, 0.06331200152635574, -0.06058146059513092, -0.13070634007453918, 0.011201154440641403, -0.09428174793720245, 0.02118401788175106, 0.042554762214422226, 0.004809217061847448, 0.008836220018565655, 0.12486227601766586, 0.06143787503242493, -0.03206963464617729, 0.05045267939567566, -0.06775929033756256, -0.01080508716404438, 0.08484883606433868, 0.029856853187084198, 0.10312063992023468, -0.01099187321960926, 0.004319770261645317, 0.05900013446807861, 9.517075523035601e-05, -0.01884339191019535, -0.13738131523132324, 0.009800473228096962, -0.04758802428841591, 0.039066869765520096, 0.07178341597318649, 0.052465084940195084, 0.06749311834573746, -0.0849030390381813, 0.021745746955275536, 0.04763396456837654, 0.09074387699365616, 0.019555866718292236, 0.07302163541316986, -0.03258996456861496, 0.013938162475824356, -0.01820887252688408, -0.18770933151245117, 0.04366447776556015, 0.00457426905632019, 0.020488452166318893, 0.006099196616560221, -0.0251521747559309, -0.01690765656530857, -0.04246753454208374], [-0.027007995173335075, -0.006412796676158905, 0.024517055600881577, -0.005849645007401705, 0.025068236514925957, -0.042255859822034836, 0.024740111082792282, -0.08022749423980713, 0.007677214685827494, 0.005026439670473337, -0.07480448484420776, -0.07558222860097885, -0.07187891751527786, 0.04886455833911896, 0.05778151750564575, 0.007323651108890772, -0.036661211401224136, 0.03904649242758751, -0.0166202150285244, 0.030711891129612923, -6.254822181028796e-12, 0.05274159833788872, 0.04342973232269287, 0.03715965151786804, 0.03880546987056732, -0.0526827797293663, -0.029403625056147575, 0.016680803149938583, 0.03502790257334709, -0.06057015806436539, -0.08923327922821045, -0.021188773214817047, -0.031043458729982376, 0.015136325731873512, 0.03381054848432541, 0.03065820038318634, -0.014022015035152435, 0.02956186980009079, -0.017811981961131096, 0.0292718093842268, 0.0181929562240839, -0.06282114237546921, 0.010842054150998592, -0.03962191194295883, -0.08130183070898056, -0.06481751799583435, -0.07169133424758911, 0.04521097615361214, -0.04244731739163399, -0.01263254415243864, 0.061928633600473404, -0.05490541830658913, 0.013383190147578716, 0.04562835767865181, 0.060528941452503204, 0.01733419857919216, 0.018917368724942207, 0.012922229245305061, 0.039866767823696136, -0.03754043951630592, -0.060523469001054764, 0.04153619334101677, 0.002455227542668581, 0.019489329308271408], [-0.09198451787233353, 0.07370614260435104, 0.09060118347406387, -0.023611152544617653, 0.11167898774147034, -0.03910621255636215, 0.009033870883286, -0.025832315906882286, 0.001104725175537169, -0.009964369237422943, 0.0116226552054286, -0.030795298516750336, 0.030911363661289215, -0.16768161952495575, 0.1101960688829422, -0.05434213951230049, -0.03179280832409859, -0.1049884632229805, -0.07038863748311996, 0.02791999839246273, 2.570340722953814e-33, 0.04413889721035957, -5.0020517236953095e-33, -0.026753904297947884, 0.06589808315038681, 0.006513531785458326, -0.18871039152145386, 0.015127896331250668, 0.16644521057605743, -0.03499893471598625, -0.05328121408820152, -0.031236108392477036, 0.006407288834452629, 0.029683345928788185, 0.021091796457767487, 0.1456078141927719, 0.01686454936861992, -1.709168786095606e-33, -0.0066889687441289425, 0.11189834028482437, 0.01791323535144329, -0.0018726079724729061, -0.2059059739112854, -0.16610723733901978, 0.016088787466287613, 0.05105486512184143, 0.03285326436161995, -0.17503640055656433, 0.06950917840003967, 0.04710794612765312, -0.016863014549016953, 0.0548747219145298, -0.016590358689427376, -0.041122134774923325, -0.023065408691763878, -0.22366493940353394, 0.18777504563331604, -0.18099890649318695, 0.05876217782497406, 0.08480151742696762, -0.06636609137058258, -0.1452234536409378, 0.14851902425289154, 0.05824005603790283], [0.009111358784139156, 0.011295304633677006, 0.04806751757860184, 0.00749578233808279, 0.00963209941983223, -0.03656299039721489, 0.04056220501661301, -0.028043141588568687, -0.033649545162916183, 0.018875498324632645, -0.02989981323480606, -0.0027400266844779253, 0.010596995241940022, 0.020701812580227852, 0.01592942886054516, 0.031350474804639816, 0.032567478716373444, 0.04555533453822136, -0.046723224222660065, -0.04536725580692291, 0.030788440257310867, -0.030007295310497284, 0.023307450115680695, 0.0043764254078269005, -0.02273605577647686, -0.03047962673008442, 0.018162371590733528, 0.006084737367928028, -0.05203760787844658, 0.027675459161400795, 0.020634878426790237, 0.04265930503606796, -0.04627823829650879, -0.006033187732100487, -0.05899449437856674, -0.006960837636142969, 0.04722002148628235, -0.05185329169034958, 0.024492809548974037, 0.022181980311870575, -0.06443645805120468, 0.0227960254997015, 0.010743369348347187, -0.026595566421747208, 0.027064038440585136, -0.022064656019210815, 0.010032587684690952, -0.008659622631967068, -0.036163948476314545, -0.0038964180275797844, 0.031920917332172394, 0.021152719855308533, -0.00843063648790121, 0.0004104517283849418, -0.05273536220192909, 0.016646597534418106, 0.012202942743897438, 0.016674619168043137, 0.02439541555941105, 0.004082135856151581, -0.03904097154736519, 0.03710247576236725, 0.011043493635952473, 0.015084642916917801], [-0.04706178233027458, -0.08529257774353027, 0.06632152199745178, -0.005728668067604303, 0.04649294540286064, 0.0031669435556977987, 0.015277983620762825, 0.0686490461230278, 0.019140778109431267, -0.031522538512945175, 0.04499925300478935, 0.014528488740324974, 0.04566096141934395, 0.05839289352297783, 0.04905864596366882, 0.0023565872106701136, 0.06613843888044357, -0.0838308334350586, 0.008927196264266968, -0.0752362608909607, 0.05289756506681442, 0.07692597806453705, -0.04328937456011772, 0.08324132859706879, 0.008462429977953434, -0.06973443180322647, 0.006378611084073782, -0.02184702642261982, 0.04944353550672531, 0.02257065288722515, -0.03955109417438507, 0.01916039176285267, 0.016787031665444374, -0.0842527225613594, 0.047927796840667725, 0.07622756063938141, -0.008901750668883324, -0.03806435689330101, 0.014418608509004116, -0.02556113339960575, 0.014526070095598698, 0.03271752968430519, 0.011321631260216236, -0.011868399567902088, 0.001068762969225645, -0.04917353391647339, -0.007811270654201508, 0.036331649869680405, 0.03575814142823219, -0.06271683424711227, -0.004869401920586824, 0.012454984709620476, -0.023171603679656982, -0.11286657303571701, 0.012471572495996952, 0.04405646771192551, -0.0663832575082779, 0.0069391438737511635, 0.03212736174464226, 0.05341709405183792, -0.07766062766313553, -0.06684718281030655, 0.03931967541575432, 0.01698518544435501], [-0.017654793336987495, 0.01495597418397665, -0.015622326172888279, 0.03010542504489422, 0.03184572234749794, 0.0033237747848033905, -0.07315713912248611, -0.03900934383273125, -0.0420086532831192, 0.019668228924274445, 0.04733673110604286, 0.03355327248573303, -0.04594847187399864, 0.03504369780421257, 0.02702840231359005, -0.036466553807258606, -0.04838211089372635, -0.07187981903553009, -0.025638863444328308, -0.014746930450201035, 0.004339506383985281, 0.05025913938879967, -0.018277553841471672, 0.04544013366103172, 0.03720371797680855, 0.024101298302412033, 0.01910635456442833, -0.012560463510453701, 0.05185910686850548, 0.05156632140278816, -0.02654303051531315, -0.09007734060287476, 0.003812593873590231, 0.02490396797657013, 0.03598567843437195, 0.025438910350203514, -0.07200003415346146, 0.00628842506557703, -0.030866773799061775, -0.00869665015488863, 0.030916959047317505, -0.026078807190060616, -0.017967764288187027, -0.03473280742764473, 0.004137816373258829, -0.04359766095876694, 0.023485418409109116, 0.04522951692342758, 0.046132639050483704, 0.02316400595009327, -0.011083520948886871, 0.027109643444418907, -0.045555099844932556, -0.0034092823043465614, 0.05657162517309189, -0.034259337931871414, 0.020849574357271194, -0.02828104794025421, -0.001686661853455007, 0.023027267307043076, 0.0029149074107408524, -0.04871847853064537, 0.02740906924009323, -0.0419975146651268], [0.01878124289214611, 0.04485930874943733, 0.00544359814375639, -0.0335705541074276, 0.038080260157585144, -0.026676705107092857, -0.12953074276447296, 0.02237817272543907, -0.09605555236339569, -0.2322748452425003, 0.027459435164928436, -0.10122611373662949, 0.10287946462631226, -0.008493034169077873, 0.019904833287000656, 0.11532328277826309, 0.12015590071678162, 0.06904762983322144, -0.09476415067911148, -0.015527194365859032, -0.08717875927686691, 0.06593804061412811, 0.012832645326852798, 0.09864581376314163, 0.043055370450019836, -0.1225266307592392, 0.05119236931204796, 0.06300149112939835, 0.09595445543527603, -0.05493661016225815, 0.06617235392332077, -0.13482758402824402, -0.10890276730060577, -0.031738679856061935, -0.005522757302969694, 0.13922646641731262, -0.19523699581623077, 0.019180582836270332, -0.050399113446474075, -0.004206748213618994, -0.05327348783612251, 0.08738546073436737, 0.10367374867200851, 0.04645248129963875, 0.13820402324199677, 0.0927102267742157, -0.10226308554410934, -0.0725407525897026, 0.04639696329832077, 0.036721937358379364, 0.054888252168893814, 0.1620839685201645, -0.12273938953876495, -0.00027614537975750864, -0.06786920875310898, 0.04000016301870346, 0.0015805559232831001, -0.17999663949012756, -0.06840118765830994, 0.007915624417364597, 0.060251664370298386, -0.04970072582364082, -0.15250137448310852, -0.011610070243477821], [-0.0061022131703794, 0.0022699490655213594, -0.08254489302635193, -0.021070076152682304, 0.01727866567671299, 0.026697291061282158, 0.011024875566363335, -0.034543342888355255, 0.016831744462251663, 0.012161068618297577, 0.06618249416351318, 0.0061790235340595245, -0.08124299347400665, -0.07344992458820343, 0.08016189187765121, 0.0006430360954254866, -0.0810861811041832, 0.014416417106986046, 0.0025509779807180166, 0.017632871866226196, 0.04482929781079292, -0.08039046823978424, 0.012401659972965717, 0.029979590326547623, 0.006055471487343311, 0.0182195957750082, 0.018456924706697464, 0.014624123461544514, 0.008158865384757519, -0.042567893862724304, 0.0010757697746157646, 0.0257771834731102, 0.007873950526118279, -1.1748228496743803e-33, -0.07010507583618164, -0.030799027532339096, -0.0011779798660427332, 0.008090348914265633, 0.0008703424828127027, 0.023189861327409744, 0.017285043373703957, -0.1147439181804657, 0.010420483537018299, 0.03163866698741913, 0.010649123229086399, -0.008657305501401424, -0.07079769670963287, 0.029302101582288742, 0.027864499017596245, -0.057166893035173416, -0.08783329278230667, 0.04262775182723999, 0.005665910895913839, 0.07105810195207596, 0.013574118725955486, 0.010896360501646996, 0.032381102442741394, -0.03505256026983261, -0.0699136033654213, 0.007584494538605213, 0.0068685575388371944, -0.007747978903353214, 0.018165966495871544, -0.0006451287772506475], [0.005467675160616636, 0.0036725203972309828, 0.03953239694237709, -0.0012007300974801183, 0.048451896756887436, 0.03450435400009155, -0.041377194225788116, 0.003324443008750677, -0.07809613645076752, -0.03982613980770111, 0.019855022430419922, -0.017008094117045403, 0.035900428891181946, 0.0341641940176487, 0.008124243468046188, 0.045104678720235825, -0.004654423799365759, 0.02236953377723694, -0.04765595123171806, 0.02771838568150997, -0.055618640035390854, -1.9222600142897702e-33, 0.041097432374954224, 0.0064302776008844376, 0.030192669481039047, -0.0916089415550232, 0.025005869567394257, 0.015438832342624664, 0.03784352168440819, -0.0884518027305603, 0.042856037616729736, -0.06388185918331146, -0.03230953961610794, -0.005451796110719442, 0.010522250086069107, 0.06055079400539398, -0.008839953690767288, 0.000441371084889397, 0.014285296201705933, -0.00463865278288722, 0.04691591113805771, 0.006052435841411352, 0.017580151557922363, 0.004226377233862877, 0.01015533972531557, 0.013910742476582527, -0.01927894912660122, -0.05552806332707405, -0.0032041172962635756, 0.019073132425546646, 0.0050842128694057465, 0.012577044777572155, -0.016215460374951363, -0.001278867362998426, 0.012040500529110432, 0.02952655404806137, 0.050688982009887695, -0.07549596577882767, 0.014261986128985882, 0.014141798950731754, 0.02627391926944256, 0.01958521641790867, -0.06648896634578705, -0.00739264627918601], [-0.09051243960857391, 0.04135921597480774, -0.1432722508907318, 0.03492577001452446, 0.05118752270936966, -0.13287487626075745, 0.0004697439435403794, 0.008645014837384224, 0.09791829437017441, 0.027333837002515793, 0.039539601653814316, 0.008162794634699821, 0.0548236146569252, 0.011216700077056885, -0.14528881013393402, 0.04883909597992897, -0.1100505143404007, 0.0612521730363369, 0.07880905270576477, 0.002292983466759324, -0.15166743099689484, 0.006945464294403791, -0.15880320966243744, -0.08737902343273163, -0.09840457141399384, 0.027907755225896835, 0.04883973300457001, -0.015697374939918518, 0.03421691060066223, 0.012675678357481956, 0.006471668370068073, -0.06216311454772949, -0.004583042114973068, 0.07153543084859848, -0.0332755446434021, 0.04733444005250931, -0.014228076674044132, -0.14922992885112762, 0.02601676620543003, 0.0025129555724561214, 0.05011391267180443, 0.058411888778209686, -0.1605285406112671, 0.09423477202653885, 0.07087425887584686, -0.14725159108638763, 0.0014154649106785655, -0.1297222077846527, 0.03248878940939903, 0.034394167363643646, 0.12963375449180603, -0.1750754714012146, 0.011186765506863594, 0.032878849655389786, -0.04586047679185867, 0.05496692284941673, -0.19280095398426056, -0.11523386090993881, -0.012787303887307644, 0.0058616893365979195, 0.015492933802306652, 0.04121674224734306, 0.05843118578195572, 0.05120401456952095], [0.11303775757551193, 0.0916777104139328, -0.07608984410762787, -0.07985345274209976, 0.005910420790314674, -0.020497970283031464, -0.027453936636447906, -0.1792607307434082, -0.035776592791080475, 0.008723583072423935, -0.23725943267345428, 0.0664549469947815, 0.06285326927900314, -0.0640716403722763, -0.1861012727022171, 0.013478443957865238, 0.10005778819322586, 0.11349525302648544, 0.020680150017142296, 0.10198400169610977, -0.05529134348034859, -0.03692799434065819, 0.13448582589626312, -0.05604163557291031, -0.040866851806640625, 0.054212067276239395, 0.001227085362188518, -0.005256085190922022, 0.05128563195466995, -0.030176851898431778, 0.10523923486471176, -0.09050189703702927, -0.07090761512517929, -0.028140941634774208, 0.020542491227388382, 0.06491301953792572, 0.06356915831565857, -0.0018925030017271638, 0.02857266180217266, 0.032710812985897064, -0.18425390124320984, 0.020293595269322395, 0.02850119024515152, -0.060206811875104904, -0.045582856982946396, -0.018481135368347168, 0.043810080736875534, -0.0080122584477067, 0.06298574805259705, 0.13084106147289276, 0.1876075714826584, -0.07904957234859467, -0.04741862043738365, -0.0656508356332779, 0.024907981976866722, -0.16688701510429382, 0.031028758734464645, 0.011525639332830906, 0.05023948475718498, 0.06233106181025505, 0.1598058044910431, 0.052941564470529556, 0.005666719283908606, -0.03409125283360481], [-0.012281068600714207, -0.009004794992506504, 0.018092304468154907, 0.010828465223312378, 0.02113986201584339, -0.014875450171530247, 0.048204462975263596, -0.04284221678972244, 0.018351517617702484, 0.013292936608195305, -0.024421704933047295, -0.07100295275449753, -0.054221201688051224, 0.02162453718483448, 0.041726525872945786, 0.010286785662174225, -0.05597839504480362, 0.01777154952287674, -0.02221604622900486, 0.028097180649638176, -0.05032152310013771, 0.05558411031961441, 0.0031777406111359596, 0.042805206030607224, 0.03171677514910698, -0.03489988297224045, -0.00022108342091087252, 0.03666077181696892, -0.0008525901939719915, -0.07074297964572906, -0.0625678300857544, -0.004242091905325651, -0.0042370278388261795, 0.0054311263374984264, 0.027762066572904587, 0.02960249036550522, -0.00493212416768074, 0.01918516680598259, -0.005638214759528637, 0.03580721467733383, 0.029906287789344788, -0.04473496600985527, 0.015545071102678776, -0.005546028725802898, -0.046168502420186996, -0.032444603741168976, -0.0481976754963398, 0.022454477846622467, -0.06821426749229431, -0.010078366845846176, 0.016503818333148956, -0.04911993816494942, 0.025774119421839714, 0.039393745362758636, 0.030288472771644592, 0.021645722910761833, -0.02114645391702652, 0.0358540415763855, 0.024175135418772697, -0.0781579315662384, -0.019324785098433495, 0.04847867414355278, -0.03495819866657257, 0.01058710552752018], [0.06918612122535706, -0.09292726963758469, -0.06439558416604996, -0.05023979768157005, -0.03837091848254204, 0.048549801111221313, -0.031221898272633553, -0.03709143027663231, 0.12125949561595917, 0.06856930255889893, 0.076962910592556, -0.024989211931824684, -0.06568622589111328, -0.08631055057048798, 0.052931759506464005, 0.07326631247997284, -0.038532838225364685, 0.09411126375198364, 0.12444140017032623, 0.004980148747563362, -0.004813308361917734, -0.025054913014173508, 0.10385316610336304, 0.039082255214452744, -0.015245767310261726, 0.12723824381828308, 0.16577263176441193, 0.06424163281917572, 0.09769251942634583, -0.044902555644512177, -0.06153017655014992, 0.07047763466835022, 0.12146060913801193, -0.10761916637420654, -0.11783567816019058, -0.015089230611920357, -0.01285301148891449, -0.025015924125909805, -0.04937722161412239, -0.0587344728410244, 0.013865876942873001, -0.10218007862567902, -0.03300709277391434, -0.022744769230484962, 0.0969831719994545, -0.024217721074819565, -0.09904429316520691, 0.11254061013460159, -0.03914390876889229, -0.10988973081111908, -0.05006162449717522, -0.032733358442783356, -0.04869421198964119, 0.0006405426538549364, -0.009138951078057289, -0.08828990161418915, 0.1343991756439209, 0.0393601655960083, -0.004102450329810381, -0.033499836921691895, 0.09079709649085999, -0.10070013254880905, 0.06797309219837189, -0.10362754017114639], [-0.012281079776585102, -0.009004778228700161, 0.01809253916144371, 0.01082847360521555, 0.021139925345778465, -0.01487545296549797, 0.0482044592499733, -0.04284088313579559, 0.01835152693092823, 0.013292929157614708, -0.024421708658337593, -0.07101622968912125, -0.05423038825392723, 0.021624518558382988, 0.041726529598236084, 0.010286808013916016, -0.055977921932935715, 0.017772313207387924, -0.02221604436635971, 0.02809717506170273, -0.05032152310013771, 0.05558411031961441, 0.0031777455005794764, 0.04280521720647812, 0.03171674907207489, -0.034905776381492615, -0.00022109292331151664, 0.036660779267549515, -0.0008525906596332788, -0.07070701569318771, -0.06256764382123947, -0.004242285620421171, -0.00423704506829381, 0.005431069061160088, 0.02776210941374302, 0.029602540656924248, -0.004932365845888853, 0.019185137003660202, -0.005638204049319029, 0.03580730780959129, 0.02990630641579628, -0.04473501071333885, 0.015545071102678776, -0.005546215921640396, -0.046168502420186996, -0.032444581389427185, -0.048196759074926376, 0.022454464808106422, -0.06820721179246902, -0.010078366845846176, 0.016503818333148956, -0.04911993816494942, 0.025774119421839714, 0.03939332440495491, 0.03028883971273899, 0.021645741537213326, -0.02114637941122055, 0.03585315868258476, 0.024175142869353294, -0.0781579315662384, -0.01932479441165924, 0.04847867414355278, -0.03495819866657257, 0.010587100870907307], [-0.018300313502550125, -0.08445243537425995, -0.005240097641944885, -0.030931686982512474, -0.01093983557075262, -0.027426257729530334, -0.033825479447841644, 0.04115905612707138, 0.026268217712640762, 0.027624398469924927, -0.047221776098012924, 0.030210575088858604, -0.016880184412002563, 0.022152362391352654, 0.04723988473415375, 0.013853171840310097, -0.009980164468288422, -0.01608060672879219, 0.01417363341897726, 0.018496496602892876, 0.0075485496781766415, 0.029179265722632408, 0.004272079560905695, -0.0015655659371986985, 0.0008713077404536307, 0.020931238308548927, -0.06571166962385178, -0.03001919761300087, -0.023772157728672028, 0.02548207901418209, 0.013192865997552872, -0.021364284679293633, -0.0041163465939462185, 0.009991460479795933, 0.023900531232357025, 0.034839026629924774, 0.02698991261422634, -0.04942227154970169, 0.011967423371970654, -0.0639222264289856, -0.05610615387558937, 0.017646927386522293, -0.019116181880235672, 0.03073050267994404, 0.03477786108851433, 0.02296646311879158, -0.03811870515346527, 0.016322379931807518, 0.009700488299131393, 0.007452042773365974, 0.019615978002548218, 0.014593430794775486, 0.026910938322544098, -0.020743660628795624, 0.0017556219827383757, -0.04834301024675369, 0.018501533195376396, 0.02181335724890232, -0.01968872919678688, 0.02670883573591709, -0.004363237414509058, 0.030163679271936417, -0.059983208775520325, 0.020221754908561707], [-0.0720207542181015, 0.028214184567332268, 0.0824083685874939, -0.025793058797717094, 0.0672226995229721, -0.009242546744644642, 0.061596691608428955, 0.02011355385184288, 0.06680303812026978, 0.014693967066705227, 0.052811019122600555, -0.06722743809223175, 0.06478442251682281, -0.15123751759529114, 0.054604414850473404, -0.010271715000271797, -0.01749558560550213, -0.09603123366832733, -0.1101330816745758, 0.05606348440051079, 0.0898902416229248, 0.09384090453386307, -0.10912730544805527, -0.07037264853715897, 0.06473436951637268, 0.0123240752145648, -0.12533347308635712, 0.037504445761442184, 0.10198992490768433, -0.007566445507109165, -0.028325898572802544, -0.009606225416064262, 0.036607690155506134, -0.030444100499153137, 0.015426887199282646, 0.05822746455669403, 0.04329473525285721, 0.0870220810174942, 0.0223764069378376, 0.06733665615320206, 0.028914570808410645, 0.030211254954338074, -0.15577492117881775, -0.14078889787197113, 0.04963214322924614, 0.05204249173402786, 0.03968045487999916, -0.15704436600208282, 0.015826964750885963, 0.05426553636789322, -0.07063326239585876, 0.03890174999833107, 0.017619432881474495, -0.06393148005008698, -0.05634648725390434, -0.1822400540113449, 0.07840873301029205, -0.11452286690473557, 0.051096778362989426, 0.013367860578000546, -0.013604766689240932, -0.15246659517288208, 0.0595395527780056, 0.04504093527793884], [-0.04468657821416855, 0.020532235503196716, 0.05428469553589821, 0.012575746513903141, -0.06679901480674744, 0.04790902137756348, 0.0372084304690361, 0.048268795013427734, 0.052064646035432816, 0.010027713142335415, -0.08062673360109329, 0.02122238278388977, 0.021486343815922737, 0.021199995651841164, -0.0993776023387909, 0.04222060367465019, 0.06553904712200165, 0.023705773055553436, -0.10183477401733398, -0.07906831055879593, -0.04832427576184273, 0.05052950233221054, 0.036301493644714355, 0.04670145735144615, -0.06319889426231384, 0.01153644174337387, 0.03155136480927467, -0.03950665518641472, 0.0591716505587101, 0.06567837297916412, 0.027462732046842575, -0.010648112744092941, -0.01931721344590187, -0.004816859494894743, 0.021494751796126366, -0.03404081612825394, -0.008014406077563763, 0.016720404848456383, 0.02490365318953991, -0.020818522199988365, 0.020599137991666794, -0.12071144580841064, 0.0013973291497677565, 0.05157799646258354, -0.06581512093544006, 0.044298361986875534, 0.03411417454481125, 0.0380207858979702, -0.09880483150482178, 0.017906950786709785, 0.001119452528655529, -0.006045127287507057, 0.03741522878408432, 0.020365741103887558, 0.043452177196741104, -0.03348223865032196, 0.01470161136239767, -0.107822485268116, 0.009906711056828499, 0.017879897728562355, -0.06725109368562698, -0.001814467366784811, 0.028233081102371216, -0.025381017476320267], [0.03631295636296272, -0.03264404460787773, 0.041763365268707275, 0.04499625787138939, -0.06871422380208969, -0.027540717273950577, -0.14509448409080505, -0.06568750739097595, -0.13174021244049072, 0.005697275511920452, 0.005928304977715015, -0.007487022317945957, -0.08829564601182938, 0.0068548619747161865, 0.0369720384478569, 0.017634008079767227, -0.005748713854700327, -0.05711441487073898, 0.0520586259663105, -0.026643598452210426, 0.08786124736070633, -0.10213061422109604, 0.11642977595329285, -0.001842118101194501, 0.030637357383966446, -0.034027352929115295, 0.005972396116703749, 0.01106108259409666, 0.01989470049738884, 0.0428752601146698, 0.021874137222766876, -0.031192390248179436, 0.02314944751560688, 0.052657350897789, 0.02405218593776226, 0.05540718883275986, 0.03190271556377411, 0.0779433324933052, -0.09193634241819382, -0.04198561608791351, 0.01405819971114397, -0.010795027017593384, 0.02821347303688526, 0.04145185649394989, 0.008890603668987751, -0.08943589776754379, 0.03603518381714821, -0.02533707022666931, -0.007380284834653139, -0.011731737293303013, 0.04627581685781479, 0.027018621563911438, 0.0034256887156516314, 0.0338452011346817, 0.06685304641723633, -0.0009669436840340495, 0.055663567036390305, -0.0030838833190500736, -0.026935942471027374, 0.03060884028673172, -0.058470964431762695, -0.026717660948634148, -0.0694902241230011, 0.025214020162820816], [0.015197652392089367, 0.01971331797540188, 0.010146346874535084, -0.0016524302773177624, -0.014326718635857105, 0.03706418350338936, -0.0003483137988951057, 0.027267690747976303, 0.016544293612241745, -0.04482322558760643, 0.016475539654493332, -0.06175655871629715, 0.006125408224761486, -0.004181995987892151, 0.012859506532549858, -0.06833066791296005, -0.060570623725652695, 0.02551240101456642, 0.03038759157061577, -0.06348830461502075, -0.025612466037273407, 0.05089323967695236, 0.025242574512958527, 0.016241690143942833, 0.023700430989265442, 0.014044842682778835, 0.008641019463539124, 0.011730474419891834, 0.007750256452709436, -0.02037406899034977, 1.5766685322388563e-33, 0.034740302711725235, 0.004888772964477539, -0.026367448270320892, -0.06490032374858856, -0.00557725690305233, -0.005311010871082544, -0.020324349403381348, -0.011921639554202557, 2.750377233673848e-33, 0.02448655292391777, 0.0011014160700142384, 3.362416367186719e-33, -2.7202106139156967e-05, 0.035492900758981705, 0.004074958153069019, -0.011770681478083134, 0.029692625626921654, 1.7034948218009807e-33, -0.043697938323020935, 0.005724784452468157, -0.007753174751996994, -0.00030943824094720185, -0.003118351334705949, -0.020663250237703323, -0.012336512096226215, -0.0015569956740364432, 0.005522032734006643, 0.015148287639021873, -0.006778378505259752, 0.03628499433398247, -0.009524861350655556, -0.0017597763799130917, -0.006905699614435434], [0.08415991812944412, -0.11274030804634094, 0.14994223415851593, 0.07370949536561966, -0.20442019402980804, -0.014023463241755962, -0.17763634026050568, -0.03990530967712402, -0.1422663927078247, 0.047894757241010666, 0.08555273711681366, -0.18031901121139526, -0.10518420487642288, 0.016365986317396164, 0.03693346679210663, 0.12318798154592514, -0.008085513487458229, -0.16243651509284973, 0.10545681416988373, -0.04128820449113846, 0.09052085876464844, -0.17684653401374817, 0.11861243098974228, -0.1231841966509819, 0.07442660629749298, -0.04767231270670891, 0.0610806979238987, 0.06048322096467018, -0.008247497491538525, 0.09975762665271759, 0.08425335586071014, -0.02504066936671734, 0.08627799898386002, 0.02436642162501812, 0.06607455015182495, 0.04871293529868126, 0.09234040975570679, 0.07735694944858551, -0.1217992901802063, -0.11998847126960754, 0.046855293214321136, 0.018563834950327873, 0.07912322133779526, 0.12217041105031967, 0.07014935463666916, -0.12732745707035065, 0.10134975612163544, -0.2152871936559677, -0.06322825700044632, -0.017263803631067276, 0.019698945805430412, 0.04726497828960419, 0.061043888330459595, 0.04938609153032303, 0.08928822726011276, 0.01684047095477581, -0.0002649235539138317, 0.023768821731209755, -0.04447615146636963, -0.02422981522977352, -0.04387320950627327, -0.07796110957860947, -0.23616616427898407, 0.042226921766996384], [1.6839819829193154e-33, 0.0033798390068113804, 0.005700370296835899, -0.00160254689399153, 0.002726576756685972, 5.026090583169625e-33, -0.013867571949958801, 0.00334932841360569, -0.023135686293244362, -0.027520179748535156, -2.6131096155405445e-33, 0.01990511268377304, 0.01177335623651743, -0.0014404156245291233, 0.00012539824820123613, 0.0088526401668787, 0.027130184695124626, 0.010764434933662415, 0.0016975243343040347, 0.0017292287666350603, 0.00027764399419538677, 0.007163577247411013, -0.002181073883548379, 0.010089494287967682, 0.0012161085614934564, 0.000494887528475374, 0.001056726323440671, 0.0026502737309783697, 0.007440236862748861, 0.0021945887710899115, 0.008871822617948055, -0.0014819556381553411, 0.0065628173761069775, -0.008028595708310604, 2.0732570390986933e-33, 0.012938208878040314, -0.03347715362906456, 0.0014694345882162452, 1.2878299174456425e-33, 0.0009858347475528717, -0.005925895180553198, 0.012958739884197712, 0.01121477596461773, 0.0001561556855449453, 0.010887791402637959, 0.008060029707849026, -0.00894156750291586, 0.004151057451963425, -0.0013501046923920512, 0.0010921410284936428, 0.00911567360162735, 0.0082789845764637, -0.00870916061103344, 0.008484644815325737, -0.012822753749787807, 0.002587652998045087, -0.0002646806533448398, -0.017041269689798355, -2.091166981230417e-33, 4.901547691383973e-33, -2.0610115103699944e-33, -0.011579657904803753, -0.010533620603382587, 0.0032446212135255337], [0.017731942236423492, -0.05437720939517021, 0.10393662005662918, 0.09629985690116882, 0.11357118934392929, -0.04781916365027428, 0.22725799679756165, 0.13779664039611816, -0.07204469293355942, 0.142531618475914, 0.09315571933984756, -0.1014363244175911, -0.11114635318517685, -0.1855582296848297, 0.09817550331354141, -0.18810510635375977, -0.051917534321546555, 0.03504234179854393, 0.23387551307678223, 0.10188734531402588, 0.14343969523906708, -0.1291474997997284, 0.11527138203382492, -0.19274328649044037, 0.032594192773103714, 0.17988884449005127, 0.08206780254840851, -0.15953366458415985, -0.03774799033999443, 0.07864221930503845, -0.09105928987264633, 0.14360086619853973, -0.12646155059337616, -0.07956549525260925, -0.04456263408064842, -0.2501421272754669, 0.10841036587953568, 0.06339163333177567, -0.1299200803041458, 0.13770543038845062, 0.11327049881219864, -0.11881759762763977, -0.1933874785900116, 0.05662053823471069, -0.23145262897014618, 0.09441179782152176, 0.03431394696235657, 0.11597951501607895, 0.059151217341423035, -0.025416532531380653, 0.06406084448099136, -0.2158716470003128, -0.10693741589784622, -0.04519985243678093, 0.12428345531225204, -0.0806596651673317, -0.1268720179796219, 0.03260719031095505, -0.14639483392238617, -0.07361912727355957, -0.013255502097308636, 0.036656659096479416, 0.033388491719961166, 0.08748361468315125], [0.11518587917089462, 0.017676662653684616, 0.09782212227582932, 0.01719411090016365, 0.07256215810775757, 0.041704822331666946, 0.05456266179680824, 0.1199927106499672, -0.16598163545131683, 0.07884865254163742, 0.12270234525203705, 0.12951603531837463, 0.08135553449392319, -0.18883439898490906, 0.06517304480075836, 0.08483114093542099, 0.13215196132659912, 0.003589120926335454, 0.005506529472768307, 0.004969227127730846, 0.1020302101969719, -0.1754991114139557, -0.010135456919670105, 0.0025627203285694122, 0.09869248420000076, -0.043778177350759506, -0.06543494015932083, -0.004418876022100449, -0.09508882462978363, -0.12342098355293274, 0.014058462344110012, -0.067327581346035, -0.16937950253486633, 0.06701122224330902, -0.013875486329197884, -0.08961407840251923, -0.1635555475950241, 0.07742100208997726, 0.06491812318563461, -0.029019981622695923, 0.07082182168960571, 0.11688665300607681, -0.08253475278615952, 0.015262561850249767, -0.26194190979003906, 0.11388684809207916, -0.03303510695695877, 0.020967235788702965, -0.23969928920269012, -0.0961952954530716, 0.11538547277450562, -0.2180671989917755, 0.08111388981342316, 0.0061063943430781364, 0.11993927508592606, 0.08543725311756134, 0.09279423952102661, 0.1256055384874344, -0.07346770912408829, 0.07629495114088058, 0.13036921620368958, 0.020770862698554993, 0.051805637776851654, 0.04207560047507286], [-0.054140862077474594, 0.02535223960876465, 0.061818163841962814, 0.022875919938087463, -0.0807265192270279, 0.04924698546528816, 0.04973367601633072, 0.056347355246543884, 0.05729304626584053, 0.016070786863565445, -0.08030316233634949, 0.03803567215800285, 0.033361416310071945, 0.03609106317162514, -0.10600201040506363, 0.05681407451629639, 0.07058689743280411, 0.029191505163908005, -0.1157870963215828, -0.09155004471540451, -0.05234532430768013, 0.05589619278907776, 0.032219238579273224, 0.054044559597969055, -0.06869889050722122, 0.021821659058332443, 0.04266883060336113, -0.050477586686611176, 0.06530748307704926, 0.04559928923845291, 0.0293178241699934, -0.015333942137658596, -0.02275034971535206, -0.0022699288092553616, 0.017351316288113594, -0.03990847244858742, -0.011080156080424786, 0.02059597708284855, 0.021422293037176132, -0.03064035065472126, 0.029337415471673012, -0.12404432892799377, 0.00036892929347231984, 0.049719713628292084, -0.0678454115986824, 0.0467863492667675, 0.03319614753127098, 0.03768319636583328, -0.1069137454032898, 0.026111658662557602, -0.005859883967787027, -0.004160618409514427, 0.04755108058452606, 0.020298117771744728, 0.06086309254169464, -0.04285217821598053, 0.02135358192026615, -0.11053105443716049, 0.0118145402520895, 0.02931191772222519, -0.07855468988418579, -0.001612092019058764, 0.03519485890865326, -0.029185989871621132], [-0.04710537940263748, -0.16293422877788544, -0.014199540950357914, -0.05194125697016716, -0.014894404448568821, -0.04163935035467148, -0.048355069011449814, 0.09665399044752121, 0.04190444201231003, 0.05677976459264755, -0.08971679955720901, 0.05267825722694397, -0.018755413591861725, 0.061179861426353455, 0.07021006941795349, 0.016760854050517082, -0.02342287078499794, -0.002593785524368286, 0.006147149484604597, 0.03809484839439392, 0.007524434477090836, 0.07640651613473892, 0.020077133551239967, 0.010293256491422653, -0.008486496284604073, 0.04150601476430893, -0.13084197044372559, -0.06924861669540405, -0.04882825165987015, 0.025082319974899292, 0.03668515011668205, -0.03807440400123596, -0.09142093360424042, 0.023756390437483788, 0.06035173311829567, 0.05612678453326225, 0.05141212046146393, -0.09141992777585983, 0.053872689604759216, -0.12222236394882202, -0.12822555005550385, 0.031138775870203972, -0.08120715618133545, 0.06627457588911057, 0.06927425414323807, 0.07603280246257782, -0.08142928034067154, 0.03880377486348152, -0.008266633376479149, 0.004011909477412701, 0.03979865089058876, 0.014085987582802773, 0.04556802287697792, -0.02476273849606514, 0.009974122047424316, -0.12509772181510925, 0.04751763120293617, 0.03323874622583389, -0.06304199248552322, 0.04451890289783478, -0.009159138426184654, 0.04922710731625557, -0.12276379764080048, 0.03204075247049332], [0.009111362509429455, 0.011295116506516933, 0.04806751757860184, 0.007495825178921223, 0.009631946682929993, -0.03656299412250519, 0.04056030511856079, -0.02804325893521309, -0.03364953771233559, 0.018875475972890854, -0.029899802058935165, -0.002741169882938266, 0.010596798732876778, 0.020701216533780098, 0.015929413959383965, 0.031350474804639816, 0.032567478716373444, 0.04555533081293106, -0.046723220497369766, -0.04536725580692291, 0.030788440257310867, -0.030006252229213715, 0.023307476192712784, 0.004376439843326807, -0.022735977545380592, -0.030479634180665016, 0.018162334337830544, 0.006084613502025604, -0.05203796178102493, 0.02767544612288475, 0.020634885877370834, 0.04265931248664856, -0.04627823829650879, -0.006033207755535841, -0.058995749801397324, -0.006960739381611347, 0.04721653088927269, -0.05184435471892357, 0.024492796510457993, 0.022182008251547813, -0.064414381980896, 0.022796036675572395, 0.010743439197540283, -0.026595573872327805, 0.027064012363553047, -0.022064581513404846, 0.010032584890723228, -0.008659622631967068, -0.036164313554763794, -0.003896443173289299, 0.031920917332172394, 0.021152807399630547, -0.008430631831288338, 0.00041047672857530415, -0.0527353473007679, 0.016646601259708405, 0.012202978134155273, 0.01667427085340023, 0.024395408108830452, 0.0040821293368935585, -0.03904073312878609, 0.03710249066352844, 0.011043540202081203, 0.015084335580468178], [-0.007412464823573828, -0.12976127862930298, -0.008634787984192371, 0.0011474975617602468, -0.017566705122590065, 0.06545946002006531, 0.040770966559648514, -0.013541982509195805, -0.03876013681292534, 0.06332273036241531, 0.020430725067853928, 0.10950607806444168, -0.05928954482078552, 0.0007712303195148706, -0.08350164443254471, -0.004235357511788607, -0.008034862577915192, 0.008354888297617435, 0.04401731118559837, 0.049095600843429565, 0.06203354895114899, 0.05141977593302727, -4.4874386640045436e-33, 0.026190228760242462, 1.1042450668250562e-33, 0.04023486375808716, -0.0968022346496582, -0.1954995095729828, 0.0025673441123217344, 0.005313255358487368, -0.02636994794011116, 0.13349442183971405, 0.03519110754132271, 0.1196746751666069, -0.2043614238500595, -0.13710616528987885, 0.07210864871740341, 0.034533821046352386, 0.01638045907020569, 0.014155303128063679, 0.1406174898147583, -5.872595289265448e-33, 0.014943664893507957, 0.016728006303310394, 0.012272585183382034, 0.055736374109983444, 0.07792369276285172, 0.09194644540548325, -0.1194620132446289, -0.13970425724983215, 0.003519158810377121, -0.024955088272690773, 0.0266739409416914, 0.017044737935066223, -0.07249490916728973, 0.08703440427780151, 0.13854168355464935, 0.03927174210548401, 0.013630786910653114, -0.12213186919689178, -0.08241485059261322, 0.02874957211315632, 0.05844167247414589, 0.03619590401649475], [0.01264919526875019, 0.004703374579548836, -0.0056314426474273205, -0.051315855234861374, -0.07754658907651901, 0.03948162868618965, 0.08648040890693665, -0.033101923763751984, 0.041330430656671524, 0.07959538698196411, 0.0651310607790947, 0.0021247349213808775, -0.0033668573014438152, 0.018870318308472633, -0.12178687006235123, -0.06411182880401611, 0.07606273144483566, 0.05097615346312523, 0.010753192938864231, 0.06820010393857956, 0.03837399184703827, -0.05266866087913513, 0.06051308661699295, 0.021740026772022247, -0.014058802276849747, 0.02029779553413391, -0.06294608116149902, -0.12665784358978271, 0.038881897926330566, -0.07911057770252228, 0.10627711564302444, 0.018935492262244225, -0.15451879799365997, 0.00850472878664732, -0.1492147147655487, -0.04466169700026512, 0.03626416251063347, -0.021752318367362022, 0.014060409739613533, -0.004133909475058317, 0.027996230870485306, 0.03249421343207359, 0.01559513621032238, 0.036503780633211136, 0.056482698768377304, 0.05452711507678032, -0.1117677092552185, 0.06269478052854538, 0.018469156697392464, -0.004650048911571503, -0.0923973098397255, -0.0473489910364151, -0.10436845570802689, 0.04074525460600853, -0.13340602815151215, -0.016966620460152626, 0.074771448969841, 0.009319820441305637, 0.00965092983096838, 0.005323235411196947, 0.012433852069079876, 0.023569678887724876, 0.061200086027383804, 0.011093380860984325], [0.027170833200216293, 0.044482845813035965, 0.10845334827899933, 0.04008825495839119, 0.02865210548043251, -0.16242116689682007, 0.12770351767539978, -0.13608837127685547, -0.1646677404642105, 0.06325967609882355, -0.05409467592835426, 0.015895018354058266, 0.0018860332202166319, 0.07597676664590836, 0.07049904763698578, 0.06926190108060837, 0.04291919246315956, 0.08541474491357803, -0.17371031641960144, -0.13259322941303253, 0.07465142011642456, -0.08437555283308029, 0.04459905996918678, 0.03818170353770256, -0.030376818031072617, -0.08467849344015121, 0.05615445598959923, 0.021812617778778076, -0.1482071429491043, 0.09089752286672592, 0.02375498227775097, 0.07008399814367294, -0.16331243515014648, -0.006483849603682756, -0.1321156769990921, 0.014318395406007767, 0.12236955761909485, -0.1883542835712433, 0.04900193214416504, 0.06322967261075974, -0.184554785490036, 0.045230064541101456, 0.03341294452548027, -0.1431427299976349, 0.08205179870128632, -0.0988750085234642, 0.04556507244706154, 0.00036533939419314265, -0.06883866339921951, 0.018901653587818146, 0.06791292876005173, 0.07122410833835602, -0.06032663211226463, -0.022393714636564255, -0.10863018780946732, 0.04071546718478203, 0.05329938977956772, 0.021010197699069977, 0.060095567256212234, 0.036840006709098816, -0.14570991694927216, 0.061838582158088684, 0.043627191334962845, 0.02751973830163479], [-0.011935533955693245, -0.028692571446299553, 0.0293310284614563, -0.016915787011384964, 0.031069951131939888, -0.01629653200507164, 0.0690179094672203, -0.0756525918841362, 0.06064673140645027, 0.03149240091443062, -0.06561004370450974, -0.08971108496189117, -0.0751766562461853, 0.02765524946153164, 0.039429884403944016, 0.027496138587594032, -0.0570797473192215, 0.04647636413574219, -0.025754429399967194, 0.04625168442726135, -0.07727080583572388, 0.08621241897344589, 0.004399149212986231, 0.05706967040896416, 0.06605902314186096, -0.050839636474847794, -0.0005588300991803408, 0.0384959802031517, 0.014774547889828682, -0.09384075552225113, -0.09112413227558136, -0.0043671028688549995, -0.009926670230925083, -0.004533414728939533, 0.03330579027533531, 0.036444563418626785, 0.021372675895690918, 0.039402250200510025, 0.006557261571288109, 0.04335862025618553, 0.024631265550851822, -0.05994291603565216, 0.04087480902671814, 1.6110720025608316e-05, -0.07011569291353226, -0.05641056224703789, -0.07654132694005966, 0.042454466223716736, -0.08839862048625946, -0.025463659316301346, 0.028173379600048065, -0.06417874246835709, 0.04143315553665161, 0.030836263671517372, 0.05694707855582237, 0.02738768793642521, -0.03197463974356651, 0.05071880295872688, 0.039062149822711945, -0.1080719530582428, -0.01909654773771763, 0.06688837707042694, -0.05494381859898567, 0.015054047107696533], [-0.01942061074078083, -0.09592391550540924, 0.0005868031294085085, -0.05577823147177696, 0.00953696295619011, -0.041748013347387314, -0.0075811767019331455, -0.023849045857787132, 0.04301039129495621, 0.04223009943962097, -0.05594097077846527, 0.05891333520412445, 0.027429819107055664, 0.03463118150830269, -0.04857451096177101, 0.02537842094898224, 0.0381278395652771, -0.011647206731140614, 0.03810802474617958, 0.04878123477101326, -0.0043959589675068855, 0.05151558667421341, 0.04554881528019905, -0.05975211411714554, -0.006821649149060249, 0.011207238771021366, -0.05172223597764969, -0.033904895186424255, 0.001166998641565442, 0.024393262341618538, 0.03993716835975647, -0.0381430946290493, -0.009577407501637936, -0.09290279448032379, 0.053535059094429016, 0.05806228145956993, 0.05849660187959671, -0.030849330127239227, 0.03783520683646202, -0.06559143960475922, -0.0962703675031662, 0.047364916652441025, -0.020259825512766838, 0.008789523504674435, 0.05521328002214432, -0.0023033879697322845, -0.015039434656500816, 0.035843878984451294, 0.023950612172484398, 0.02194047160446644, 0.07400336116552353, -0.016823353245854378, 0.010278425179421902, -0.06547397375106812, 0.022398386150598526, -0.05024844408035278, 0.03352797403931618, 0.04357031360268593, -0.0047021908685564995, 0.031106622889637947, 0.03163671866059303, -0.00047086295671761036, -0.052589498460292816, 0.01936022937297821], [0.05865113437175751, -0.057751018553972244, 0.09031432867050171, 0.04046452045440674, -0.1022387146949768, -0.01593071036040783, -0.10271450132131577, -0.04373512044548988, -0.10300801694393158, 0.02624776028096676, 0.06004847586154938, -0.09355568140745163, -0.06822822988033295, 0.00278100767172873, 0.03198709711432457, 0.06376864016056061, -0.004984301049262285, -0.07321348786354065, 0.05724634602665901, -0.01855705864727497, 0.06716148555278778, -0.10963861644268036, 0.08974206447601318, -0.08491076529026031, 0.023550095036625862, -0.028537243604660034, 0.019236451014876366, 0.034762199968099594, -0.008290478959679604, 0.050852738320827484, 0.05371773988008499, -0.025787165388464928, 0.05933840945363045, 0.04368549585342407, 0.0417802594602108, 0.046991195529699326, 0.050369955599308014, 0.07992970943450928, -0.0900026187300682, -0.06300880014896393, 0.025554848834872246, -0.002988648135215044, 0.03888440132141113, 0.07622513175010681, 0.05811113864183426, -0.09396573901176453, 0.072724848985672, -0.1351718008518219, -0.04085465893149376, 0.0006939087761566043, 0.03431233763694763, 0.022348616272211075, 0.03429275006055832, 0.054456550627946854, 0.05621938779950142, 0.019717300310730934, 0.025385117158293724, 0.015265541151165962, -0.03344143554568291, -0.010271039791405201, -0.03181358054280281, -0.03868768364191055, -0.10514417290687561, 0.030224047601222992], [0.022554680705070496, 0.025383813306689262, -0.010338079184293747, -0.0418727770447731, -0.06997561454772949, 0.03369881585240364, 0.0807463526725769, -0.04631464183330536, 0.0560193695127964, 0.08956583589315414, 0.061553020030260086, 0.010628528892993927, 0.007541164755821228, 0.03206383064389229, -0.12775129079818726, -0.08123208582401276, 0.06705764681100845, 0.06521208584308624, -0.0060090841725468636, 0.07992848008871078, 0.047118496149778366, -0.06356790661811829, 0.06261324882507324, 0.023608988150954247, -0.030735671520233154, 0.026545152068138123, -0.06599321961402893, -0.1300075650215149, 0.0469745397567749, -0.07368811219930649, 0.09669530391693115, 0.027955781668424606, -0.16872058808803558, 0.0056876749731600285, -0.1607978641986847, -0.0583663284778595, 0.024526067078113556, -0.01977180317044258, 0.007825572974979877, -0.004636258352547884, 0.02253209799528122, 0.042058173567056656, 0.014681382104754448, 0.022743772715330124, 0.07469429075717926, 0.060624659061431885, -0.10981577634811401, 0.048874810338020325, 0.020763861015439034, -0.0020017458591610193, -0.09791293740272522, -0.05532372370362282, -0.10348270833492279, 0.044238775968551636, -0.14736081659793854, -0.02103872410953045, 0.08185284584760666, 0.014809327200055122, 0.004058363847434521, 0.02467654086649418, 0.02882787585258484, 0.036997489631175995, 0.059519365429878235, 0.021701298654079437], [0.016097918152809143, -0.04581794887781143, 0.08773244917392731, -0.07842162996530533, 0.01881297677755356, 0.021323520690202713, -0.05525492876768112, 0.08616779744625092, 0.03573265299201012, -0.0013034859439358115, -0.13566644489765167, 0.0450870543718338, 0.0571894571185112, 0.0999123826622963, -0.035474322736263275, 0.07028726488351822, 0.0783405601978302, -0.02864399552345276, 0.056181106716394424, -0.09367866069078445, 0.05480702221393585, 0.09550604224205017, 0.004998522810637951, 0.04589763283729553, -0.04499618709087372, -0.034833263605833054, -0.05620979517698288, -0.06994597613811493, 0.0844464898109436, 0.07105880975723267, 0.012309111654758453, -0.012119077146053314, -0.021243102848529816, -0.06175069883465767, 0.07952163368463516, 0.09981749206781387, 0.05526082217693329, -0.06115248054265976, 0.0611233115196228, -0.04309280961751938, -0.10771959275007248, 0.03952386602759361, 0.046546515077352524, -0.0007045111851766706, -0.07760133594274521, -0.030390499159693718, 0.002407443942502141, 0.1266612708568573, 0.03417809680104256, -0.10787732899188995, 0.07489320635795593, 0.017122356221079826, 0.010319271124899387, -0.11651492863893509, 0.12069554626941681, -0.0578608512878418, -0.05668685957789421, -0.0016657609958201647, 0.021330492570996284, 0.14381805062294006, -0.021864984184503555, 0.012230719439685345, 0.036312736570835114, 0.01335794385522604], [0.07996644824743271, -0.12727898359298706, -0.013843756169080734, 0.032101087272167206, -0.06393828988075256, -0.012812049128115177, 0.16162508726119995, -0.04028159752488136, -0.044843174517154694, -0.019022207707166672, 0.001638915273360908, 0.14045825600624084, -0.0923980325460434, 0.03237475827336311, -0.06385528296232224, -0.06241966038942337, 0.09513586014509201, 0.0989680364727974, -0.05118787661194801, -0.07434343546628952, 0.15503454208374023, -0.05318215861916542, -0.007208327762782574, 0.11463621258735657, -0.001020135940052569, 0.09784045070409775, -0.051967743784189224, -0.19351635873317719, -0.033164121210575104, 0.07624870538711548, -0.05310613289475441, 0.2104043960571289, -0.012754371389746666, 0.19742734730243683, -0.20494842529296875, -0.1457529366016388, 0.18262767791748047, -0.015841685235500336, 0.051508828997612, 0.013499664142727852, -0.19796429574489594, 0.051905397325754166, 0.02584080770611763, 0.004497953690588474, 0.12006466835737228, 0.047760121524333954, 0.11798319965600967, 0.04710765182971954, -0.12947003543376923, -0.1375252604484558, 0.06429843604564667, 0.04237833246588707, 0.013297166675329208, -0.04363277181982994, -0.10927414894104004, 0.10361532866954803, 0.04754410311579704, 0.07929817587137222, 0.0712805911898613, -0.12775011360645294, -0.0710950493812561, 0.07442633807659149, 0.08669918030500412, 0.030704081058502197], [-0.021398350596427917, -0.04560880362987518, 0.008168524131178856, -0.017993494868278503, 0.016067534685134888, 0.01681637577712536, 0.07799340784549713, -0.14272063970565796, 0.1332891881465912, 0.058742694556713104, -0.0859316736459732, -0.06626328080892563, -0.11401944607496262, 0.06897279620170593, 0.02962147630751133, 0.05794184282422066, -0.12197311222553253, 0.03978981077671051, -0.06512659788131714, 0.04402795806527138, -0.13159571588039398, 0.09228797256946564, 0.008760516531765461, 0.062367234379053116, 0.04551064968109131, -0.07321933656930923, -0.02373737096786499, 0.0537458173930645, -0.0202792938798666, -0.18472154438495636, -0.10178437829017639, -0.0034508081153035164, -0.00576862134039402, 0.022962354123592377, 0.09753391146659851, 0.06670737266540527, 0.05233697593212128, 0.03642241656780243, 0.04862646013498306, 0.04601701349020004, 0.0505768358707428, -0.10184933245182037, 0.07398203015327454, -0.01491092424839735, -0.08538000285625458, -0.130291149020195, -0.07887651771306992, 0.038755010813474655, -0.12374135851860046, -0.03624694421887398, 0.0003504198102746159, -0.07491810619831085, 0.11152923107147217, 0.02538730949163437, 0.05143173784017563, 0.029650017619132996, -0.03284313529729843, 0.1441265046596527, 0.11120380461215973, -0.032643597573041916, -0.0370124988257885, 0.10594845563173294, -0.028266718611121178, 0.008705474436283112], [0.03009014204144478, 0.01797296293079853, 0.00314162764698267, -0.05565138906240463, -0.06914491206407547, 0.02518533729016781, 0.02510405145585537, 0.0051412684842944145, 0.03478144109249115, 0.022136341780424118, 0.0349305123090744, -0.017783302813768387, -0.021534521132707596, 0.03783518821001053, -0.05637059733271599, -0.07898949086666107, 0.05143042281270027, 0.028479646891355515, 0.013157563284039497, -0.0009672436863183975, 0.04209543392062187, -0.03104272112250328, 0.011806143447756767, 0.054274484515190125, 0.0004990927991457283, 0.01230532955378294, -0.09219750761985779, -0.0887058898806572, 0.04213174805045128, -0.020417962223291397, 0.02111724205315113, 0.021873708814382553, -0.06024912744760513, 0.03540866822004318, -0.10743009299039841, -0.0832386314868927, 0.04256892576813698, -0.024728627875447273, 0.022420043125748634, -0.015435370616614819, 0.004419649485498667, 0.04394622519612312, 0.023378420621156693, 0.02180606871843338, 0.013314669951796532, 0.045584142208099365, -0.06374713033437729, 0.028118574991822243, 0.04249802231788635, 0.005295643582940102, -0.053192030638456345, -0.008473020978271961, -0.062286097556352615, 0.007936679758131504, -0.06908538192510605, 0.0026939786039292812, 0.025590425357222557, 0.004442652687430382, 0.030351433902978897, -0.0004372121475171298, 0.036858201026916504, 0.017232412472367287, 0.023217178881168365, 0.01632876694202423], [0.13728347420692444, -0.11624171584844589, 0.051614172756671906, 0.1160762831568718, -0.1168336272239685, 0.03614106774330139, -0.11527305841445923, 0.1406916230916977, 0.15701605379581451, -0.09693898260593414, 0.013250318355858326, -0.18737052381038666, -0.023908579722046852, 0.025273457169532776, -0.0018511820817366242, -0.07840247452259064, -0.1039251983165741, 0.16342681646347046, 0.19404752552509308, -0.283995658159256, -0.16813193261623383, 0.12238019704818726, 0.14981575310230255, 0.1529376357793808, 0.05037311837077141, 0.10725285857915878, 0.14610180258750916, 0.07913576066493988, 0.13732732832431793, -0.06435935199260712, -0.1359759271144867, 0.07876081019639969, 0.1549862176179886, -0.25542569160461426, -0.19605199992656708, -0.002866192953661084, -0.10512720048427582, -0.1250351369380951, -0.17125210165977478, -0.174625962972641, 0.18770377337932587, 0.023818612098693848, -0.13634654879570007, -0.104305200278759, 0.2151402086019516, 0.1470794528722763, -0.10954206436872482, 0.030986430123448372, -0.15988609194755554, -0.06648465245962143, 0.054881710559129715, -0.14927032589912415, -0.1346801221370697, -0.031227990984916687, -0.09287125617265701, -0.1566363126039505, 0.16224795579910278, 0.15977971255779266, 0.21318714320659637, -0.05329732224345207, 0.07643502950668335, -0.08803028613328934, 0.1380637288093567, -0.20154285430908203], [-0.021996930241584778, 0.01597803644835949, -0.0759354829788208, 0.023338671773672104, -0.007066922727972269, 0.04685642570257187, -0.08233221620321274, -0.008590448647737503, -0.05365818366408348, -0.05194207653403282, -0.11920031160116196, 0.029180455952882767, 0.028611935675144196, 0.02160193771123886, 0.003472743323072791, -0.08959344774484634, 0.017102539539337158, -0.0044508627615869045, 0.042039841413497925, 0.02926858700811863, -0.036554012447595596, -0.020107893273234367, 0.08048630505800247, -0.0313958041369915, -0.07899870723485947, 0.019593853503465652, -0.025601647794246674, -0.002559713553637266, -0.09825890511274338, -0.09647316485643387, 0.03920745849609375, 0.040298957377672195, 0.049681924283504486, 0.026121366769075394, 0.02571975439786911, 0.019947165623307228, -0.05751824378967285, 0.04684346169233322, -0.011658619157969952, 0.023892104625701904, 0.009563332423567772, -0.015216597355902195, 0.05895029380917549, -0.055010922253131866, -0.0420345738530159, 0.03794533759355545, 0.024209991097450256, 0.046565305441617966, 0.04050570726394653, 0.010647126473486423, -0.06301166117191315, 0.053773343563079834, 0.030557794496417046, 0.028908468782901764, -0.04946667328476906, 0.0464806854724884, 0.02644284814596176, 0.06355249136686325, 0.010415131226181984, 0.033045392483472824, -0.0436880849301815, 0.051351066678762436, 0.011504309251904488, -0.01691506616771221], [0.06838662922382355, 0.043168555945158005, 0.013840707018971443, 0.03228573873639107, 0.0750037208199501, 0.023431750014424324, -0.029956847429275513, 0.05636729672551155, -0.13907670974731445, -0.08036887645721436, 0.0630222037434578, 0.04565466567873955, 0.05734940990805626, -0.04419372230768204, 0.09099821746349335, 0.05663022771477699, 0.04518986493349075, 0.03372836112976074, -0.08768121898174286, -0.020460980013012886, -0.02071850374341011, -0.05380252003669739, 0.0276286993175745, 0.028899062424898148, 0.0836402177810669, -0.10778751224279404, 0.0580633319914341, 0.08567646890878677, 0.026733282953500748, -0.10953042656183243, -0.0009392265928909183, -0.09739180654287338, -0.046765077859163284, 0.04154645651578903, 0.11027219891548157, 0.04132862016558647, -0.06416429579257965, 0.05950034782290459, 0.0577666200697422, -0.039708442986011505, 0.012177906930446625, 0.06534568965435028, -0.03766139596700668, 0.039164137095212936, -0.120395727455616, 0.06979812681674957, -0.03709236904978752, -0.09767776727676392, -0.059949569404125214, 0.03286781162023544, 0.09119494259357452, -0.0451212078332901, 0.0842093825340271, -0.042377229779958725, 0.09169106930494308, 0.05939715728163719, -0.015431244857609272, -0.029903892427682877, 0.013754925690591335, 0.04914633557200432, 0.08224740624427795, 0.007987130433321, -0.08550257980823517, -0.007101912517100573], [-0.027885591611266136, 0.041025493294000626, -0.007571342866867781, 0.058604467660188675, 0.07939300686120987, -0.01044729258865118, -0.17206555604934692, -0.14200031757354736, -0.15689973533153534, 0.04824215546250343, 0.12846842408180237, 0.08035510778427124, -0.11020262539386749, 0.09967712312936783, 0.0726860761642456, -0.05310444161295891, -0.11250881105661392, -0.15816541016101837, -0.0988018736243248, -0.06109648197889328, 0.03086518682539463, 0.1264229416847229, -0.027175556868314743, 0.10216541588306427, 0.09248217940330505, 0.03606889769434929, 0.05955475568771362, -0.028418824076652527, 0.10396147519350052, 0.12616689503192902, -0.06876064091920853, -0.20186857879161835, -0.019906403496861458, 0.05594248324632645, 0.06305552273988724, 0.04803013801574707, -0.16169054806232452, -0.01641322858631611, -0.07434426248073578, -0.014643625356256962, 0.037333473563194275, -0.05850348621606827, -0.04089438170194626, -0.11665555834770203, 0.024824855849146843, -0.13364277780056, 0.057944804430007935, 0.10548311471939087, 0.09468428790569305, 0.06144470348954201, -0.008246446959674358, 0.06678743660449982, -0.11304029822349548, -0.014150765724480152, 0.10051924735307693, -0.08753303438425064, 0.05301301181316376, -0.051462575793266296, -0.0005088947364129126, 0.06137353926897049, -0.024495668709278107, -0.09900408238172531, 0.06456773728132248, -0.1051359474658966], [0.0018236207542940974, 0.008991772308945656, 0.03748089447617531, -0.05108841136097908, 0.02041594311594963, -0.016303006559610367, 0.0422474630177021, -1.581384284966569e-33, 0.014835396781563759, -7.074347377056256e-05, -0.1046062707901001, 0.047586120665073395, 0.07793939113616943, 0.031139547005295753, -0.11720835417509079, 0.007329713087528944, 0.09852701425552368, 0.010349981486797333, 0.015669317916035652, 0.020434139296412468, -0.04901784658432007, 0.06040572375059128, 0.012357606552541256, -0.018936272710561752, -0.010337576270103455, 0.005088665522634983, -0.007678418420255184, -0.015896108001470566, 0.0309000164270401, 0.03835777938365936, 0.010999597609043121, -0.03931295499205589, -0.009469722397625446, -0.11386783421039581, 0.04838845878839493, 0.049955591559410095, 0.030004307627677917, 0.0248741265386343, 0.034626856446266174, -0.0067596533335745335, -0.08442875742912292, 0.09559009969234467, 0.012287136167287827, -0.04217686131596565, -0.010754534974694252, -0.0042965710163116455, 0.04222748428583145, 0.02392868883907795, 0.013387797400355339, 0.04500899091362953, 0.12223415821790695, -0.06147356331348419, -0.02302028052508831, -0.15360717475414276, 0.012522469274699688, -0.07556311041116714, 0.005036244168877602, 0.03692919760942459, 0.05014622211456299, 0.018129147589206696, 0.04404670372605324, -0.010667317546904087, 0.03553370013833046, -0.005717774387449026], [0.01084513682872057, 0.020487170666456223, 0.052299611270427704, -0.07018739730119705, 0.046009715646505356, 0.05342941731214523, -0.09979534894227982, 0.06277527660131454, -0.03608257323503494, -0.00218767998740077, -0.05004682391881943, -0.06128959357738495, -0.053340181708335876, 0.0448368638753891, 0.03209887817502022, 0.08677993714809418, -0.10932325571775436, -0.09982234984636307, 0.03161056712269783, -0.04353192821145058, 0.01880487985908985, 0.09337514638900757, -0.06919950246810913, 0.026069214567542076, 0.04838079214096069, -0.018756764009594917, -0.0726194679737091, 0.01911483332514763, 0.026760632172226906, 0.053805526345968246, -0.07159250974655151, 0.03331493213772774, 0.06654466688632965, 0.004984961356967688, -0.0025361618027091026, -0.022150835022330284, 0.017732679843902588, -0.04039759188890457, 0.02740654908120632, -0.024377310648560524, 0.04852677881717682, 0.024390246719121933, 0.047329530119895935, -0.020855825394392014, -0.07831764966249466, -0.048778824508190155, 0.030597198754549026, 0.01592959277331829, 0.032671548426151276, -0.019493214786052704, 0.02740873023867607, 0.045735590159893036, 0.02483806386590004, -0.019665442407131195, 0.05849200859665871, 0.047717247158288956, 0.03597574308514595, -0.041685063391923904, 0.016284728422760963, -0.04586796090006828, 0.02296350710093975, 0.034182485193014145, -0.041271936148405075, 0.013241928070783615], [-0.00877680815756321, 0.034122176468372345, 0.07793807238340378, 0.04006361588835716, 0.0662975162267685, -0.14089335501194, 0.054324183613061905, -0.10470178723335266, -0.14069068431854248, 0.06425341963768005, -0.05235225707292557, -0.0032275274861603975, 0.013064220547676086, 0.04148058965802193, 0.06654392182826996, 0.08636240661144257, -0.0005440872628241777, 0.03244896978139877, -0.1422538310289383, -0.08177162706851959, 0.028125112876296043, -0.028313148766756058, 0.026924632489681244, -0.00019367005734238774, -0.01702626794576645, -0.07146026194095612, 0.08605816215276718, 0.048236314207315445, -0.11862763017416, 0.07744234055280685, 0.018993748351931572, 0.025720957666635513, -0.08004443347454071, -0.019112776964902878, -0.03981299325823784, 0.05412464216351509, 0.06592822074890137, -0.14765720069408417, 0.02791183814406395, 0.04591855779290199, -0.08998766541481018, 0.019317539408802986, 0.004859018139541149, -0.15163767337799072, 0.03655391186475754, -0.11728999018669128, 0.054866909980773926, -0.026676863431930542, -0.06606479734182358, 0.02544684149324894, 0.04493604600429535, 0.06317538022994995, -0.029599860310554504, -0.013102559372782707, -0.03814055025577545, 0.017129691317677498, 0.0280668456107378, 0.010590173304080963, 0.03705458343029022, 0.027841098606586456, -0.07082202285528183, 0.03808946534991264, 0.02448112517595291, 0.008674293756484985], [-0.081828773021698, -0.24685853719711304, -0.02260262705385685, -0.061454787850379944, -0.08043143153190613, -0.0998864471912384, -0.07215198874473572, 0.1542600393295288, 0.05289022624492645, 0.12732724845409393, -0.12898851931095123, 0.14857307076454163, -0.04369955509901047, 0.11663550138473511, 0.08617596328258514, 0.05768730118870735, -0.04631054773926735, 0.022759823128581047, -0.004732233937829733, 0.050409816205501556, -0.0005861885147169232, 0.1609306037425995, 0.1063365638256073, -0.019300132989883423, -0.01297790091484785, 0.10469014942646027, -0.2091953158378601, -0.16085125505924225, -0.09357398748397827, 0.06585058569908142, 0.11843466758728027, -0.10057826340198517, -0.18534108996391296, 0.10424873232841492, 0.13266949355602264, 0.08804481476545334, 0.07330480217933655, -0.11650256812572479, 0.07025790214538574, -0.18454131484031677, -0.1792948693037033, -0.005330970510840416, -0.1767866313457489, 0.1585182100534439, 0.11639124900102615, 0.18593855202198029, -0.1204700767993927, 0.08555720746517181, -0.0617547333240509, 0.0364871621131897, 0.08059589564800262, 0.015443099662661552, 0.13920414447784424, 0.023944273591041565, 0.01894628070294857, -0.2217101752758026, 0.1203821450471878, 0.024466335773468018, -0.12738507986068726, 0.10868516564369202, -0.012350081466138363, 0.1545582115650177, -0.19912488758563995, 0.04744160920381546], [0.1398676335811615, -0.06880227476358414, 0.020136049017310143, 0.14946617186069489, -0.0642455592751503, -0.01573021337389946, -0.06635042279958725, 0.07531968504190445, 0.14854905009269714, 0.03791749104857445, 0.040364447981119156, 0.04290665313601494, -0.0317501500248909, 0.020219627767801285, 0.0013237256789579988, 0.07524257153272629, 0.02437363751232624, 0.1001158356666565, 0.18414340913295746, 0.04525541886687279, 0.003973059356212616, 0.0806107148528099, 0.09603488445281982, 0.11214261502027512, -0.02171957865357399, -0.005373765714466572, 0.11959266662597656, 0.05842554569244385, 0.07448207587003708, -0.03502833470702171, -0.10007424652576447, 0.0761355310678482, 0.11340566724538803, -0.14922946691513062, -0.02652875706553459, -0.005435531493276358, -0.0657111257314682, -0.05580121651291847, -0.14360053837299347, -0.14903675019741058, 0.06692729890346527, 0.017148682847619057, -0.09716829657554626, -0.046715375036001205, 0.04921482875943184, 0.09367871284484863, -0.12310817837715149, 0.005517670419067144, -0.09785179048776627, 0.03359918296337128, 0.026916787028312683, -0.06585941463708878, -0.10994048416614532, -0.011001568287611008, -0.048641353845596313, -0.0943705216050148, 0.12449529767036438, 0.12203290313482285, 0.08435951173305511, -0.06627453863620758, 0.01075869332998991, -0.0554378479719162, 0.09608402103185654, -0.15488506853580475], [-0.018183361738920212, -0.012369164265692234, -0.08859960734844208, -0.10590116679668427, 0.021692194044589996, 0.03660031780600548, 0.05039303004741669, -0.09042558819055557, 0.05147162079811096, 0.022288179025053978, 0.039363592863082886, 0.025629771873354912, -0.05948491394519806, -0.11759356409311295, 0.052473265677690506, 0.03466397151350975, -0.07761440426111221, 0.0035415617749094963, 0.021207883954048157, 0.04731450229883194, 0.05573730543255806, -0.13627766072750092, 0.03426988422870636, -0.02502237632870674, 0.004359571263194084, 0.022419728338718414, 0.035888466984033585, 0.019865304231643677, 0.030761925503611565, -0.021445322781801224, 0.02323504164814949, 0.019934751093387604, 0.03170297294855118, 0.02076909877359867, -0.06492365151643753, -0.016179630532860756, 0.054122671484947205, 0.02580133266746998, 0.036290012300014496, 0.04103510081768036, -0.036149702966213226, -0.12503328919410706, 0.05715791508555412, 0.06013839319348335, 0.02895454317331314, -0.09641300141811371, -0.05100388079881668, 0.04295879602432251, 0.069731205701828, -0.17494960129261017, -0.08737309277057648, 0.056000594049692154, 0.024968769401311874, 0.011418824084103107, 0.049647409468889236, -0.0028105841483920813, 0.026387907564640045, -0.030731109902262688, -0.08151892572641373, 0.04168587923049927, 0.043217744678258896, -0.06069968268275261, 0.010372295044362545, 0.007874594070017338], [-0.014192556962370872, 0.008088209666311741, -0.10687033087015152, -0.09648234397172928, 0.024243725463747978, 0.03762046620249748, 0.015696046873927116, -0.06565985083580017, 0.04535242170095444, 0.03072156198322773, 0.07986414432525635, 0.05004686862230301, -0.08947046101093292, -0.18032550811767578, 0.07794211059808731, 0.018667051568627357, -0.09992225468158722, -0.0009356773807667196, 0.037460118532180786, 0.041041068732738495, 0.06541368365287781, -0.15601743757724762, 0.05503884702920914, -0.019738715142011642, -5.930830957368016e-05, 0.034900035709142685, 0.062213022261857986, 0.02322148159146309, 0.03144494816660881, -0.009105144999921322, 0.04761570692062378, 0.03837538883090019, 0.03398807719349861, 0.059530504047870636, -0.10444292426109314, -0.032331906259059906, 0.03878457099199295, 0.044376276433467865, 0.02248622477054596, 0.022279636934399605, -0.031743939965963364, -0.1657702773809433, 0.044229570776224136, 0.0704938992857933, 0.0676397904753685, -0.0810120552778244, -0.07375628501176834, 0.04473891481757164, 0.08455187827348709, -0.1789885312318802, -0.10365831106901169, 0.07093995809555054, -0.0025482974015176296, 0.032446082681417465, 0.04569555073976517, 0.0007049072883091867, 0.06658480316400528, -0.0634542927145958, -0.11660456657409668, 0.03971058502793312, 0.06433745473623276, -0.09155368059873581, 0.0537799708545208, -0.00946810096502304], [0.0323239304125309, -0.010847489349544048, 0.010598999448120594, 0.015857016667723656, -0.024349961429834366, 0.02535797469317913, -0.02797587960958481, 0.036749549210071564, 0.02013915404677391, 0.003915105946362019, 0.0014087980380281806, -0.0012686281697824597, -0.014781358651816845, -0.000490829988848418, 0.025867633521556854, 0.02340506948530674, -0.023634470999240875, 0.038232818245887756, 0.026427684351801872, -0.0024699277710169554, -0.0005170782678760588, 0.043215613812208176, 0.03650938719511032, 0.04182308539748192, 0.0038281281013041735, 0.024881359189748764, 0.01069817878305912, 0.01738368161022663, 0.02782229334115982, -0.015577312558889389, -0.04196706786751747, 0.002878435654565692, 0.04253048449754715, -0.06492046266794205, 0.001055977656506002, -0.005763282999396324, -0.030672891065478325, -0.02687038853764534, -0.0555526539683342, -0.06662489473819733, 0.030786482617259026, 0.001959297340363264, -0.017328692600131035, -0.019634604454040527, 0.025280941277742386, 0.039156150072813034, -0.04836937040090561, 0.018787585198879242, -0.04929448664188385, -0.010171998292207718, 0.017112338915467262, -0.039396509528160095, -0.05271020159125328, -0.009337808936834335, -0.011585992760956287, -0.04109291359782219, 0.04127989709377289, 0.01926329731941223, 0.036099448800086975, -0.011155089363455772, 0.029595188796520233, -0.019016873091459274, 0.036441367119550705, -0.07293211668729782], [0.04193251579999924, -0.05548582971096039, 0.07230494916439056, 0.022176671773195267, -0.10016731917858124, -0.003702412359416485, -0.07183701545000076, -0.018789296969771385, -0.07359922677278519, 0.022854594513773918, 0.05643460154533386, -0.08155174553394318, -0.04593874514102936, 0.008118566125631332, 0.017955590039491653, 0.053728871047496796, 0.0028361633885651827, -0.07296321541070938, 0.044816866517066956, -0.014115791767835617, 0.050157688558101654, -0.06492773443460464, 0.046782273799180984, -0.059716660529375076, 0.019225263968110085, -0.02142680622637272, 0.01823865994811058, 0.0258565042167902, -0.007204852066934109, 0.04106602072715759, 0.04464670643210411, -0.010970883071422577, 0.04892987385392189, 0.009276457130908966, 0.0316031351685524, 0.023072250187397003, 0.04302128404378891, 0.04154414311051369, -0.05977142974734306, -0.05401874706149101, 0.021273307502269745, 0.0029504550620913506, 0.033987969160079956, 0.06684205681085587, 0.05125200375914574, -0.06749828904867172, 0.056970033794641495, -0.0917203426361084, -0.03751875087618828, -0.006830335594713688, 0.008238227106630802, 0.017097825184464455, 0.0287664532661438, 0.026596978306770325, 0.03779200464487076, 0.02062862180173397, -0.0006368198664858937, 0.01988982781767845, -0.02342948690056801, -0.010314401239156723, -0.029398053884506226, -0.0336478017270565, -0.10485831648111343, 0.018329789862036705], [0.03598589077591896, -0.015432891435921192, 0.0035279439762234688, 0.02673291601240635, -0.014043670147657394, 0.018944619223475456, -0.017415961250662804, 0.0031267590820789337, 0.015026211738586426, -0.023950936272740364, -0.005429387092590332, -0.00806925818324089, -0.003235994838178158, 0.003086873097345233, -0.026031890884041786, -0.005168835632503033, 0.028665268793702126, 0.03298258036375046, 0.035548627376556396, -0.008687596768140793, -0.008174138143658638, 0.0393366739153862, 0.019761620089411736, 0.02441355027258396, -0.015553676523268223, 0.009449253790080547, 0.01707652024924755, 0.014291434548795223, 0.025003617629408836, -0.010899652726948261, -0.018504681065678596, 0.025018323212862015, 0.008385599590837955, -0.022773467004299164, -0.00021269687567837536, 0.0013716777320951223, -0.02443135343492031, -0.003313295776024461, -0.012104053981602192, -0.020270083099603653, 0.018619874492287636, 0.004864715971052647, -0.015062755905091763, -0.019152740016579628, 0.02086828462779522, 0.026308216154575348, -0.0077544767409563065, 0.0068777697160840034, -0.03121085651218891, 0.031608812510967255, 0.009523851796984673, -0.023866500705480576, -0.029170790687203407, -0.0015115817077457905, -0.014147921465337276, -0.0123208062723279, 0.011716239154338837, 0.022200237959623337, 0.02482813037931919, 0.009045487269759178, 0.01844736933708191, -0.005253827665001154, -0.0017400411888957024, -0.024157129228115082], [-0.06941919773817062, 0.04565441235899925, -0.061605870723724365, 0.03000739961862564, 0.04745594784617424, 0.01043503638356924, -0.0273372083902359, 0.02192426100373268, 0.01729590632021427, -0.035472314804792404, -0.055256012827157974, -0.014286584220826626, 0.10340085625648499, -0.059059690684080124, -0.027981936931610107, -0.08171024173498154, -0.014494265429675579, -0.050058554857969284, -0.03459378704428673, 0.07049509137868881, -0.030925581231713295, 0.026816776022315025, -0.05119829252362251, -0.10475672781467438, -0.048978399485349655, 0.051529109477996826, -0.07901576161384583, 0.018263662233948708, -0.05112665519118309, -0.09695816785097122, 0.02640937641263008, 0.01953636109828949, 0.08332362771034241, 0.009509265422821045, 0.024395862594246864, 0.06908253580331802, -0.030397027730941772, 0.018560603260993958, 0.02399350330233574, 0.07673994451761246, 0.058304209262132645, 0.03556280583143234, -0.05655370280146599, -0.07979219406843185, 0.022636763751506805, 0.027314726263284683, 0.06018225848674774, -0.07358279824256897, 0.06678184121847153, 0.058640364557504654, -0.07926195859909058, 0.015081281773746014, 0.05564897134900093, 0.014141730964183807, -0.11506931483745575, -0.034727178514003754, -0.007196377031505108, -0.04875833913683891, 0.040116772055625916, 0.017727218568325043, -0.04452776908874512, -0.02430371567606926, 0.0576976053416729, 0.028755860403180122], [-0.10355359315872192, 0.038776058703660965, -0.1449488401412964, 0.06146755814552307, 0.06429006904363632, -0.14935865998268127, -0.0013931292342022061, 2.421655153739266e-06, 0.11234641075134277, 0.03696810081601143, 0.053042516112327576, 0.016718057915568352, 0.07098132371902466, 0.014859595336019993, -0.14142191410064697, 0.0584002323448658, -0.1233709454536438, 0.08635536581277847, 0.10903319716453552, -0.002674449933692813, -0.1515037715435028, 0.005564182996749878, -0.16548077762126923, -0.10102009028196335, -0.09757083654403687, 0.04842877760529518, 0.0486893467605114, -0.02975381165742874, 0.040558017790317535, 0.006040958222001791, 0.018661148846149445, -0.07720612734556198, -0.013234063051640987, 0.058941811323165894, -0.03778749704360962, 0.06230023875832558, -0.027440806850790977, -0.15217143297195435, 0.04836875572800636, -0.0016689755721017718, 0.058670755475759506, 0.06352448463439941, -0.16533540189266205, 0.09246877580881119, 0.06142785772681236, -0.16679881513118744, 0.014812883920967579, -0.15017428994178772, 0.06499490141868591, 0.055526379495859146, 0.135482057929039, -0.17841923236846924, 0.01665482297539711, 0.05583629012107849, -0.056939903646707535, 0.08528780192136765, -0.17192892730236053, -0.13369536399841309, -0.014786743558943272, 0.02659972570836544, 0.01096278801560402, 0.04401756078004837, 0.06748688966035843, 0.06448990106582642], [-0.07548034936189651, 0.03827627748250961, -0.14398203790187836, 0.051097460091114044, 0.014410923235118389, 0.06038924306631088, -0.1373414397239685, -0.0059010242111980915, -0.07207965105772018, -0.10861153900623322, -0.18341529369354248, 0.03712086379528046, 0.056257788091897964, -0.0045637693256139755, -0.0019327200716361403, -0.18033921718597412, 0.017041807994246483, -0.044263895601034164, 0.041880592703819275, 0.07679305970668793, -0.05921168252825737, 0.00040827097836881876, 0.09160540252923965, -0.12503257393836975, -0.1371936947107315, 0.03879563882946968, -0.053558871150016785, 0.024519022554159164, -0.16743317246437073, -0.17369946837425232, 0.06337364763021469, 0.07755277305841446, 0.11005160957574844, 0.027698395773768425, 0.05783989652991295, 0.03439176082611084, -0.07693572342395782, 0.059805408120155334, -0.041292622685432434, 0.07188844680786133, 0.041674546897411346, -0.029910851269960403, 0.0807761698961258, -0.11653703451156616, -0.05083901807665825, 0.0731658786535263, 0.06568445265293121, 0.016526006162166595, 0.06985963135957718, 0.02930876798927784, -0.13612087070941925, 0.07790468633174896, 0.03716319426894188, 0.035521697252988815, -0.1044752225279808, 0.04916686564683914, 0.0461050420999527, 0.0837302878499031, 0.04354867711663246, 0.0582381971180439, -0.0784047320485115, 0.0721777006983757, 0.023187268525362015, -0.03367925062775612], [0.09372265636920929, 0.06889691948890686, -0.15537269413471222, -0.0036724782548844814, -0.16008633375167847, -0.0495675727725029, 0.1363636553287506, -0.024153411388397217, 0.1544831395149231, -0.17126832902431488, 0.04853937402367592, 0.022615503519773483, -0.09202057868242264, -0.00019699454423971474, -0.05131334066390991, -0.18245631456375122, 0.16212227940559387, 0.11390525102615356, -0.04166576638817787, -0.118845134973526, 0.10896981507539749, -0.16050125658512115, 0.05771467462182045, 0.1317397952079773, 0.00391516275703907, 0.10260190069675446, -0.1090206727385521, -0.052309513092041016, 0.04319256544113159, 0.020371632650494576, -0.06877820193767548, 0.0795757919549942, -0.02122747339308262, 0.09181743860244751, -0.05168524384498596, -0.13777832686901093, 0.08825957030057907, 0.038951776921749115, 0.06250890344381332, -0.057146456092596054, -0.15206411480903625, 0.10685688257217407, -0.012162436731159687, 0.08051999658346176, 0.08081372082233429, 0.1129775196313858, -0.0247614998370409, -0.029300225898623466, 0.10162147879600525, 0.10195906460285187, -0.006010737270116806, 0.015767477452754974, -0.000734630913939327, -0.05531362444162369, -0.07658752799034119, 0.0103396475315094, -0.11167104542255402, 0.06317051500082016, 0.07941029965877533, 0.02079339325428009, 0.04927678033709526, -0.009040492586791515, 0.027971990406513214, -0.00039956887485459447], [-0.019572878256440163, 0.03027527406811714, 0.06519239395856857, -0.048370711505413055, 0.03707918897271156, -0.06718117743730545, -0.07105351984500885, -0.009685402736067772, -0.07213585078716278, -0.11628460139036179, -0.03212753310799599, 0.05929813161492348, 0.05231828615069389, -0.09188591688871384, 0.02181331068277359, 0.0897941142320633, 0.0919417291879654, 0.051376406103372574, 0.034455232322216034, 0.053236182779073715, -0.024849576875567436, 0.09008853137493134, -0.03364090248942375, 0.08431018888950348, 0.031814318150281906, 0.018258392810821533, 0.022514086216688156, 0.04004522040486336, 0.060013297945261, 0.011288568377494812, 0.005429585464298725, -0.005685534793883562, 0.06978271156549454, -0.043241530656814575, -0.11281222850084305, 0.07697683572769165, -0.1543944925069809, 0.020560231059789658, -0.09294978529214859, 0.024215541779994965, -0.04085107147693634, 0.05658096820116043, 0.10034400969743729, 0.005271387752145529, 0.08006853610277176, 0.05672129616141319, -0.09966495633125305, 0.057301029562950134, -0.022201167419552803, -0.004373996052891016, 0.05888357758522034, 0.056213486939668655, -0.09757283329963684, 0.049792345613241196, -0.05658983811736107, 0.03898447006940842, -0.024522418156266212, -0.09420886635780334, -0.13707543909549713, -0.08668062090873718, 0.0031111263670027256, -0.06731654703617096, -0.12994401156902313, 0.05080198496580124], [0.009111358784139156, 0.011294960975646973, 0.048067521303892136, 0.0074957991018891335, 0.009631915017962456,